747 128
2543 -0.129782 0.122594 -0.034753 0.019369 -0.022655 -0.161645 -0.162070 -0.258360 0.151061 -0.067245 0.189229 -0.236683 0.212766 0.034214 0.100626 -0.102828 -0.009594 0.040309 -0.017729 0.090744 -0.204632 0.086995 0.055407 0.218444 -0.015477 -0.251597 -0.141656 -0.082823 -0.052040 -0.095788 0.041813 0.292369 -0.084819 -0.235432 -0.082796 -0.134311 0.096885 -0.108257 -0.188251 -0.014925 0.173848 0.121900 -0.095431 -0.209146 -0.131463 -0.091944 -0.154247 -0.108534 -0.130529 -0.186363 0.211092 0.126842 0.004290 -0.013925 0.075851 0.160161 0.022583 -0.179022 -0.077999 -0.013107 -0.063633 -0.011362 0.070500 0.094025 -0.016705 -0.037042 0.015602 -0.060376 -0.095226 0.010680 -0.113586 -0.092052 0.247421 0.033390 -0.005759 -0.114491 0.009347 -0.091746 -0.092433 -0.159915 0.084619 0.233805 -0.010559 -0.001039 -0.086217 -0.000461 -0.209919 -0.139715 0.026284 -0.019324 -0.175368 0.166522 -0.052644 -0.021145 -0.047695 -0.143775 -0.026404 -0.035308 0.047913 -0.061351 0.357483 0.037516 0.137539 0.010392 -0.069601 -0.027382 -0.087511 0.075593 0.093134 0.016616 0.107686 -0.104372 0.109496 -0.029151 -0.030725 -0.163309 -0.149371 0.081757 0.003954 -0.003329 -0.125692 0.310677 -0.135653 -0.247839 -0.053850 0.035211 0.064337 -0.168155
2347 -0.184882 0.090279 -0.002164 0.029290 -0.024931 -0.207529 -0.159729 -0.255956 0.173074 -0.066145 0.178774 -0.266365 0.132115 0.041127 0.094919 -0.115103 -0.010805 0.001458 -0.020671 0.103018 -0.210945 0.102716 -0.015331 0.252738 -0.052391 -0.245613 -0.163906 -0.092612 -0.024083 -0.035651 0.039056 0.308476 -0.147994 -0.263374 -0.030283 -0.144767 0.084065 -0.121385 -0.206561 -0.015027 0.209968 0.128023 -0.064860 -0.253136 -0.135045 -0.065004 -0.133567 -0.091930 -0.122866 -0.225147 0.218988 0.162153 0.058560 -0.038035 0.084238 0.191161 0.017504 -0.157781 -0.080971 0.047206 -0.089134 0.018725 0.108068 0.106368 -0.025917 -0.022233 0.044635 -0.099310 -0.083472 0.040766 -0.168513 -0.025564 0.267727 0.034623 0.051730 -0.175790 0.006369 -0.038263 -0.085721 -0.152125 0.089956 0.301106 0.002653 0.005561 -0.107183 -0.050976 -0.260576 -0.160092 0.048585 -0.020950 -0.170886 0.145812 -0.045034 -0.099757 -0.035587 -0.204640 -0.059937 -0.058884 0.040095 -0.076496 0.375212 0.042745 0.154263 -0.001005 -0.073446 -0.019570 -0.081881 0.052083 0.062000 0.020360 0.083127 -0.071919 0.034286 -0.065329 -0.039567 -0.158653 -0.125447 0.099746 0.041452 -0.020661 -0.115779 0.301444 -0.110857 -0.246865 -0.082330 -0.002216 0.047781 -0.229377
2047 -0.047015 -0.178126 0.173014 -0.115899 0.096040 -0.204574 -0.145394 0.199006 0.052810 0.068667 0.327883 -0.047386 -0.057850 -0.165991 -0.011059 0.006942 -0.159543 -0.139079 -0.115462 0.164312 -0.362005 0.179283 0.072714 -0.194526 0.047522 -0.344438 -0.032808 0.062146 0.112442 0.101688 -0.321904 0.080505 -0.142659 -0.055075 -0.120632 0.057019 -0.122391 -0.240975 -0.094661 0.309099 0.156720 0.122729 0.026466 -0.130679 -0.157906 -0.056113 -0.157210 -0.024005 0.112662 -0.068822 -0.006996 0.109988 -0.050413 0.032700 -0.007185 0.054586 0.132185 -0.132611 -0.340942 -0.020456 -0.008153 0.048761 0.048472 -0.119619 0.141330 -0.061730 -0.142513 -0.185992 -0.107808 0.100544 0.088119 -0.058936 0.114380 -0.053124 0.171947 -0.017664 0.051727 -0.021455 0.081031 0.107087 -0.067558 0.334224 -0.081891 0.108415 -0.029890 0.203881 -0.246114 -0.253926 0.028387 -0.194487 -0.186306 0.219925 0.347512 -0.049756 -0.062050 -0.184734 0.026721 -0.244252 0.154939 0.012699 0.466391 -0.079587 0.071132 0.053685 -0.022964 -0.035861 -0.292085 0.161822 0.011391 0.207487 0.042057 0.109291 0.065082 -0.144928 0.148267 -0.358556 0.177488 0.018164 0.187074 0.044654 -0.347684 0.238156 0.089301 -0.227287 -0.133190 0.218713 0.158561 -0.195408
1941 -0.101931 0.091043 -0.014189 -0.005096 -0.010459 -0.192548 -0.151301 -0.219466 0.144459 -0.064038 0.170393 -0.137013 0.233582 -0.010626 0.072868 -0.054185 -0.037417 -0.003403 -0.019482 0.076483 -0.225100 0.128215 0.042260 0.109489 -0.012359 -0.233812 -0.115177 -0.061493 -0.067419 -0.089286 0.000176 0.270170 -0.085118 -0.228952 -0.121941 -0.159073 0.099148 -0.154034 -0.231397 0.039535 0.150782 0.127659 -0.094643 -0.164275 -0.188157 -0.068378 -0.190979 -0.086666 -0.062473 -0.185214 0.217642 0.125790 -0.031783 -0.009128 0.053627 0.147637 0.010025 -0.197210 -0.076738 -0.006744 -0.059147 -0.000011 0.145578 0.037421 0.013107 -0.040014 0.015552 -0.119794 -0.034563 0.000869 -0.088078 -0.068687 0.150006 0.016563 0.018079 -0.094792 0.087885 -0.045416 -0.095439 -0.121946 0.093952 0.242425 -0.002994 -0.001178 -0.069238 0.017425 -0.231058 -0.190007 0.030478 -0.093889 -0.194996 0.185179 0.034301 -0.062701 -0.054693 -0.112332 -0.036796 -0.010852 0.085253 -0.046560 0.363239 0.000533 0.121109 0.027836 -0.048131 0.055609 -0.082224 0.101656 0.046068 0.075942 0.063772 -0.034850 0.051985 -0.003705 -0.034291 -0.141858 -0.148436 0.023363 0.035848 -0.006873 -0.117991 0.290192 -0.088186 -0.283330 -0.057934 0.062652 0.100295 -0.141224
2384 -0.050218 0.017353 0.050694 -0.047820 -0.127373 -0.074881 -0.073006 -0.168600 0.082880 -0.014420 0.193316 -0.182074 0.169342 -0.194570 0.051124 -0.100283 -0.199854 0.091757 -0.080127 0.100313 -0.218396 0.009324 0.230934 0.043091 -0.066658 -0.327423 -0.113770 -0.115720 -0.010754 -0.028539 -0.127032 0.239340 -0.129917 -0.111561 -0.008971 -0.166688 -0.046565 -0.188667 -0.075706 0.301102 0.158358 0.066455 -0.159164 -0.214727 -0.025673 -0.057087 -0.180209 -0.023226 -0.110874 -0.088382 0.234615 0.100463 0.002582 0.007469 0.019113 0.147781 0.263381 -0.214212 -0.252213 -0.050376 -0.231064 0.030198 0.019906 -0.036277 0.030835 -0.037661 -0.014605 -0.179756 -0.125814 -0.024080 -0.015776 -0.156927 0.209833 -0.112885 0.119485 -0.042120 0.008978 -0.041804 0.116635 -0.093725 0.036018 0.101244 0.022281 0.069607 -0.115993 0.038755 -0.092886 -0.175912 -0.128990 -0.154520 -0.041586 0.283512 0.119537 -0.145361 -0.044035 -0.267399 0.040786 -0.094655 0.251350 -0.005937 0.311161 -0.032329 0.167609 0.111634 -0.093553 -0.144257 -0.056129 0.168539 -0.035008 0.174298 0.017540 -0.008119 0.152953 0.058011 0.159201 -0.443444 -0.033872 0.063914 0.116836 -0.069449 -0.247553 0.257107 -0.060017 -0.296177 -0.280158 0.264901 0.301907 -0.020690
2199 -0.064078 -0.042156 0.072099 -0.109462 -0.027367 -0.145357 -0.135438 -0.192566 0.064053 -0.047015 0.146881 -0.291938 0.156031 -0.183458 0.040956 -0.026254 -0.155108 0.037387 -0.038805 0.077525 -0.278325 0.089772 0.207977 0.044716 -0.072295 -0.371751 -0.138512 -0.141234 -0.003218 0.008920 -0.130568 0.277257 -0.139181 -0.077984 -0.077223 -0.094931 -0.056293 -0.280162 -0.066350 0.303405 0.206469 0.131392 -0.183524 -0.198404 -0.049851 -0.072017 -0.225963 -0.033136 -0.066143 -0.166834 0.203735 0.069099 0.035804 0.031170 0.064823 0.154679 0.313370 -0.132672 -0.302415 -0.052385 -0.193401 -0.008834 0.072451 -0.016888 0.056793 -0.059951 -0.036852 -0.135490 0.019050 0.007257 0.066179 -0.160561 0.146490 -0.076968 0.205178 -0.084086 0.063428 -0.074112 0.084006 -0.143679 0.028209 0.138583 0.017130 0.083616 -0.177654 0.084279 -0.119258 -0.216118 -0.064798 -0.207946 -0.098380 0.286175 0.169540 -0.112544 -0.020921 -0.316268 0.018311 -0.110815 0.284383 0.014996 0.406996 -0.041996 0.188159 0.043469 -0.103675 -0.090898 -0.091354 0.121879 -0.023369 0.130423 0.061381 -0.024069 0.090031 0.038304 0.174589 -0.372756 -0.088512 0.035987 0.162282 -0.026428 -0.306998 0.253554 -0.103378 -0.273969 -0.230534 0.299029 0.250590 -0.087804
2111 -0.040169 -0.009012 0.042373 -0.078058 -0.028739 -0.098470 -0.153692 -0.207944 0.085122 -0.003848 0.119272 -0.300991 0.171787 -0.165378 0.115191 -0.040412 -0.094233 0.046099 -0.011377 0.064369 -0.215972 0.076497 0.224032 0.076894 -0.044227 -0.362456 -0.138213 -0.159240 -0.000772 -0.006991 -0.119373 0.279632 -0.131428 -0.102373 -0.086311 -0.119826 -0.030013 -0.288489 -0.035525 0.276458 0.230432 0.168756 -0.163237 -0.247819 -0.035041 -0.068405 -0.232306 -0.027799 -0.082706 -0.200400 0.222982 0.043742 0.038925 0.011215 0.061193 0.148039 0.319024 -0.137337 -0.257539 -0.024787 -0.207615 -0.010260 -0.001451 -0.016055 0.024430 -0.072599 -0.054350 -0.114739 0.008540 0.023651 0.057263 -0.148342 0.196366 -0.137826 0.183818 -0.032171 0.045982 -0.101258 0.110594 -0.166026 -0.000767 0.077125 0.006433 0.082443 -0.161447 0.074948 -0.102909 -0.207546 -0.070684 -0.186393 -0.088661 0.272820 0.107509 -0.097989 -0.020725 -0.344833 0.023052 -0.116137 0.297520 0.041334 0.426892 -0.059805 0.157978 0.031660 -0.101260 -0.109641 -0.087862 0.155409 -0.028830 0.131186 0.093635 -0.079263 0.138040 0.065086 0.169264 -0.426225 -0.129645 0.096828 0.149593 -0.044931 -0.333871 0.289180 -0.119563 -0.264048 -0.213315 0.333957 0.257586 -0.110577
2266 -0.302914 0.287432 -0.058021 0.060153 0.034438 -0.234909 -0.170219 -0.259752 0.208516 -0.093976 0.439542 -0.122841 0.192659 0.065845 0.308381 -0.024076 -0.019797 -0.062476 0.047690 0.146267 -0.092306 0.183231 -0.168611 0.298888 0.101687 -0.187992 -0.122703 -0.129213 0.014316 -0.120644 -0.073821 0.272579 -0.062000 -0.450327 -0.131045 -0.066769 0.127262 0.009105 -0.224262 -0.264534 0.136620 0.156066 0.014856 -0.287566 -0.213846 -0.039367 -0.263370 -0.285133 -0.029019 -0.298573 0.356425 0.180753 0.153509 -0.238745 0.192042 0.085263 -0.192592 -0.342319 -0.082314 0.049722 -0.077518 0.021868 -0.031311 -0.042963 0.142369 -0.047641 -0.006682 -0.072784 0.053873 0.056558 -0.201250 0.031844 0.208556 0.372829 -0.141331 0.140554 0.073893 -0.144012 -0.069030 -0.178537 0.119142 0.016437 0.009863 -0.151086 -0.091941 -0.151940 -0.204689 -0.245260 0.062991 -0.026401 -0.291410 0.261143 -0.180793 0.183823 0.054592 0.023857 -0.065826 -0.076346 -0.182819 -0.192235 0.420412 0.116489 0.130084 0.134315 0.029070 0.042614 0.001050 0.137516 0.123357 -0.047419 0.142174 -0.170885 0.198806 -0.065335 -0.030186 -0.047452 0.045121 0.190927 0.022669 0.060926 0.244337 0.347389 -0.243596 -0.315080 -0.162091 -0.017487 -0.104265 -0.187215
2133 -0.025336 -0.073797 0.012070 -0.039258 -0.032593 -0.034512 -0.063546 0.083663 0.097250 0.054006 0.303959 -0.070093 0.024056 -0.163457 0.130340 -0.056519 -0.064309 -0.035203 -0.083553 0.120199 -0.214177 -0.009752 0.143278 -0.089015 0.034702 -0.319516 -0.075388 -0.040367 0.071101 0.033570 -0.295103 0.114615 -0.092275 -0.104134 -0.016287 0.010248 -0.106416 -0.227984 -0.074624 0.253534 0.117979 0.143188 -0.024680 -0.260438 -0.117127 -0.073459 -0.048079 -0.044096 -0.004552 -0.066277 0.152426 0.035908 -0.009783 0.080860 0.012101 0.073805 0.216432 -0.176967 -0.232860 -0.003865 -0.125536 0.033765 -0.040397 -0.061558 0.039303 -0.002367 -0.090622 -0.177866 -0.174539 0.050010 0.052376 -0.112884 0.196853 -0.106614 0.145120 0.073695 0.041754 -0.050894 0.143270 0.042269 -0.095048 0.207436 -0.113841 0.165581 -0.102760 0.131689 -0.072433 -0.255256 -0.132558 -0.155684 -0.031628 0.302254 0.185597 -0.034938 -0.068618 -0.323721 0.060414 -0.205087 0.202123 0.026240 0.308519 -0.061881 0.115071 0.036727 0.029578 -0.078186 -0.230150 0.201082 0.018757 0.167795 0.081131 -0.113463 0.185297 -0.002742 0.233260 -0.454633 0.005462 0.069514 0.103152 -0.008632 -0.316523 0.228859 0.025143 -0.207852 -0.099334 0.324016 0.267340 -0.198674
2142 -0.273650 0.307318 -0.082068 0.070013 -0.035038 -0.208445 -0.143335 -0.303683 0.242289 -0.099382 0.414372 -0.160729 0.187484 0.053062 0.292967 -0.025670 -0.008920 -0.056616 0.052116 0.115153 -0.107557 0.154624 -0.146096 0.295977 0.056399 -0.170904 -0.114199 -0.135719 -0.003489 -0.094388 -0.051389 0.291884 -0.057784 -0.398174 -0.085630 -0.077609 0.134463 -0.007561 -0.250462 -0.198955 0.134631 0.131266 0.003172 -0.312829 -0.171965 -0.030465 -0.193453 -0.229448 -0.057502 -0.269023 0.334052 0.186306 0.118618 -0.206800 0.150398 0.128569 -0.179511 -0.300998 -0.039144 0.050661 -0.084199 0.050041 -0.057047 -0.034777 0.112833 0.002803 0.039155 -0.061730 0.014701 0.051859 -0.233214 0.026895 0.243343 0.301379 -0.131121 0.073127 0.069815 -0.122107 -0.078966 -0.208940 0.124665 0.054937 0.019858 -0.128687 -0.115762 -0.151535 -0.215608 -0.209755 0.034879 -0.004238 -0.249009 0.240711 -0.209815 0.120483 0.016803 -0.007618 -0.101642 -0.056763 -0.145944 -0.175201 0.382832 0.107689 0.112051 0.130910 0.016422 -0.021807 0.038671 0.148592 0.097936 -0.029165 0.116705 -0.141644 0.167535 -0.065475 -0.035724 -0.062678 -0.007640 0.173437 0.002878 0.013662 0.235300 0.351449 -0.249226 -0.307787 -0.142367 -0.056533 -0.084759 -0.200963
2289 0.009395 -0.077438 0.021276 0.002947 -0.073363 -0.020081 -0.067095 0.042221 0.099243 0.057040 0.286049 -0.110104 0.024102 -0.156622 0.144107 -0.095503 -0.055121 -0.015180 -0.105563 0.139811 -0.197059 -0.005728 0.186527 -0.088659 0.038190 -0.379327 -0.086105 -0.049419 0.056892 0.051321 -0.251866 0.093037 -0.149971 -0.082249 -0.042388 -0.058494 -0.087686 -0.224283 -0.065691 0.325097 0.116518 0.128563 -0.082198 -0.291256 -0.072510 -0.045020 -0.057002 -0.010329 -0.055838 -0.066828 0.185279 0.037240 0.000294 0.119901 -0.025393 0.094556 0.291915 -0.179751 -0.208892 0.036963 -0.164261 0.001848 -0.098376 -0.097816 0.040657 0.025918 -0.106052 -0.226251 -0.231926 0.032758 0.026663 -0.108042 0.249871 -0.114829 0.158997 0.061084 0.038888 -0.039353 0.162552 0.055988 -0.090226 0.211059 -0.145477 0.187626 -0.067371 0.127258 -0.079819 -0.275452 -0.183950 -0.121580 -0.013452 0.328085 0.186713 -0.072061 -0.107060 -0.348510 0.053963 -0.231480 0.204604 0.037563 0.288737 -0.066461 0.131814 0.031259 0.016603 -0.148342 -0.213060 0.194058 0.038016 0.175748 0.075088 -0.113089 0.195489 -0.022984 0.215290 -0.482826 -0.023450 0.103978 0.076426 -0.020950 -0.362648 0.276610 0.039337 -0.210077 -0.113926 0.306441 0.309740 -0.196858
2328 -0.105673 -0.030246 0.061108 -0.083623 -0.048640 -0.060916 -0.126013 -0.159246 0.099710 0.024743 0.206214 -0.267920 0.122306 -0.181319 0.096930 -0.064003 -0.098395 0.120666 -0.036919 0.097307 -0.182883 0.014599 0.207218 0.103825 -0.065142 -0.329597 -0.175661 -0.183470 0.050528 -0.040428 -0.141440 0.261453 -0.196657 -0.174178 -0.012986 -0.100199 -0.075683 -0.216893 -0.025887 0.245211 0.206256 0.139994 -0.145307 -0.322810 -0.052133 -0.099227 -0.243544 -0.076421 -0.084602 -0.160544 0.230391 0.054834 0.056889 -0.000165 0.114778 0.158637 0.332875 -0.205804 -0.371843 -0.018799 -0.282312 -0.010857 -0.017228 -0.002774 0.036500 -0.118292 -0.070557 -0.158450 -0.064488 -0.002834 0.030372 -0.159125 0.238576 -0.026512 0.192940 0.014539 -0.027621 -0.128169 0.132664 -0.132141 0.022416 0.085687 0.023718 0.087331 -0.221177 0.012514 -0.077512 -0.219504 -0.119406 -0.168685 -0.038027 0.299422 0.083041 -0.060101 0.023946 -0.375979 0.088238 -0.158092 0.283048 0.000092 0.359600 0.032901 0.214025 0.047906 -0.099468 -0.150195 -0.131542 0.114822 0.000396 0.123875 0.107489 -0.119327 0.190416 0.057416 0.213986 -0.446575 -0.054550 0.085853 0.131438 -0.030947 -0.318605 0.211631 -0.054179 -0.246885 -0.244896 0.339616 0.231983 -0.090214
1985 -0.295625 0.172493 0.003917 0.043188 0.027804 -0.272848 -0.206830 -0.249874 0.210128 -0.063604 0.336839 -0.178908 0.184968 0.066081 0.173859 -0.098564 -0.066692 -0.018970 -0.022310 0.181300 -0.196150 0.217624 -0.108465 0.283945 0.053095 -0.249553 -0.169068 -0.086590 0.010851 -0.089129 0.023567 0.314076 -0.085909 -0.401910 -0.096256 -0.138897 0.092179 -0.005146 -0.235774 -0.180120 0.157276 0.126020 -0.002260 -0.254422 -0.219536 -0.038917 -0.206698 -0.210071 -0.094294 -0.268289 0.281399 0.225224 0.080941 -0.136465 0.120345 0.132210 -0.156302 -0.294988 -0.106889 0.037739 -0.061501 0.043096 0.098347 0.035608 0.062554 -0.051466 0.019719 -0.090491 -0.035044 0.060451 -0.219635 0.020872 0.261574 0.250476 -0.089719 -0.069171 0.011006 -0.101903 -0.103301 -0.157485 0.101582 0.209243 -0.003540 -0.108443 -0.054187 -0.098482 -0.303408 -0.219052 0.060236 -0.025834 -0.281349 0.205518 -0.102491 0.051267 0.019430 -0.019998 -0.064453 -0.061241 -0.099451 -0.167788 0.438836 0.101231 0.144674 0.086362 -0.013265 0.012218 -0.062104 0.100897 0.137091 -0.002831 0.120222 -0.097094 0.120011 -0.123244 -0.078418 -0.101420 0.011575 0.137353 0.026153 0.036322 0.044021 0.350255 -0.179368 -0.304219 -0.150197 -0.066334 -0.039428 -0.225366
1577 -0.064467 -0.025996 0.044084 0.003290 -0.147953 -0.112878 -0.105980 -0.127027 0.137233 0.017146 0.206774 -0.236122 0.084661 -0.117436 0.050140 -0.178528 -0.132215 0.040958 -0.118704 0.158787 -0.287523 0.036977 0.160742 0.066893 -0.079001 -0.411770 -0.152509 -0.085532 0.034832 0.025804 -0.111391 0.262702 -0.178574 -0.142195 0.039515 -0.183797 -0.059752 -0.233554 -0.127467 0.301732 0.237219 0.099798 -0.089262 -0.344539 -0.082370 -0.049315 -0.079008 -0.002869 -0.140217 -0.119287 0.175219 0.142134 -0.006830 0.085584 0.038491 0.174508 0.239287 -0.176842 -0.228660 0.036908 -0.196587 0.039330 0.038840 0.030365 -0.015426 0.014056 -0.015474 -0.210196 -0.187040 -0.007673 -0.121013 -0.111276 0.325328 -0.160509 0.187074 -0.161970 -0.023549 -0.020617 0.087333 -0.075554 -0.016074 0.307513 -0.038796 0.107722 -0.076768 0.067245 -0.198871 -0.204174 -0.109245 -0.104664 -0.041119 0.191133 0.105910 -0.230925 -0.097032 -0.379760 0.008762 -0.131805 0.243065 0.015497 0.346126 -0.037878 0.163848 0.022911 -0.088057 -0.142178 -0.135398 0.149231 0.000921 0.193121 0.072366 -0.014849 0.094718 -0.024459 0.129319 -0.438475 -0.072306 0.092513 0.094014 -0.106221 -0.362964 0.297095 -0.022487 -0.258242 -0.178314 0.205028 0.290648 -0.202165
2081 -0.096884 -0.042861 0.102982 -0.104945 -0.009036 -0.164233 -0.152405 -0.196524 0.073299 -0.030577 0.154352 -0.283141 0.178440 -0.157394 -0.009432 -0.047453 -0.184512 0.086610 -0.062686 0.092215 -0.307129 0.095902 0.241743 0.056431 -0.095044 -0.349637 -0.153011 -0.156484 -0.021203 -0.006826 -0.071601 0.307135 -0.142560 -0.105412 -0.075648 -0.126945 -0.057836 -0.248552 -0.083417 0.289736 0.202737 0.093223 -0.187650 -0.187086 -0.053576 -0.093315 -0.257651 -0.063059 -0.064563 -0.148752 0.222704 0.112302 0.016039 0.025030 0.080176 0.189454 0.300792 -0.196337 -0.342824 -0.071293 -0.195969 0.030303 0.109129 -0.014805 0.080295 -0.084751 -0.060256 -0.172222 0.011686 -0.009781 0.042923 -0.155150 0.126665 -0.043766 0.149058 -0.111157 0.022613 -0.090057 0.049338 -0.146332 0.065956 0.164080 0.047189 0.046175 -0.150563 0.061405 -0.164559 -0.195733 -0.044823 -0.208160 -0.101103 0.266235 0.164254 -0.134428 -0.000424 -0.282148 0.023707 -0.106857 0.272751 -0.004970 0.397296 0.011602 0.192089 0.066752 -0.138729 -0.100343 -0.094256 0.119697 -0.015111 0.128770 0.023094 0.008826 0.092746 0.017873 0.125568 -0.345968 -0.051658 -0.000397 0.147725 -0.023003 -0.303302 0.221192 -0.103235 -0.275134 -0.258390 0.243235 0.230996 -0.046784
2233 -0.279147 0.290305 -0.018088 0.103722 -0.108822 -0.232991 -0.156216 -0.331125 0.197945 -0.148528 0.415832 -0.286526 0.095207 0.122716 0.238596 -0.101966 -0.045063 -0.005799 -0.001622 0.130027 -0.183736 0.162015 -0.110509 0.329396 0.035316 -0.183788 -0.101352 -0.104828 -0.031626 -0.037839 0.100938 0.225209 -0.072457 -0.331476 -0.031033 -0.123293 0.118391 0.077111 -0.230440 -0.168056 0.099626 0.052974 -0.026546 -0.287249 -0.091658 0.029997 -0.126034 -0.198358 -0.151427 -0.229169 0.270001 0.210435 0.146040 -0.160249 0.087803 0.153692 -0.164972 -0.238907 0.010406 0.060048 -0.032552 0.088003 -0.119605 -0.047048 0.123495 0.073763 0.006591 -0.068387 -0.161841 0.072865 -0.269938 0.037777 0.307342 0.278195 -0.175434 -0.096801 0.026267 -0.098169 -0.081134 -0.171558 0.100654 0.166256 0.001496 -0.074355 -0.053947 -0.096168 -0.281068 -0.144218 -0.001183 0.108414 -0.211386 0.211959 -0.198625 0.040602 -0.032867 -0.019498 -0.069130 -0.091352 -0.172650 -0.226220 0.328166 0.165262 0.098873 0.132852 -0.021395 -0.149501 -0.000490 0.136602 0.134027 -0.037111 0.080559 -0.110391 0.113336 -0.163803 -0.115109 -0.069763 0.045155 0.170611 -0.029291 0.039627 0.101986 0.346090 -0.248212 -0.244271 -0.151314 -0.162628 -0.031129 -0.241484
2054 -0.098965 -0.024370 0.069738 -0.057087 -0.027782 -0.119372 -0.159296 -0.255008 0.107208 -0.018699 0.126568 -0.281370 0.191407 -0.185530 0.070420 -0.081030 -0.158339 0.129266 -0.033865 0.075048 -0.206574 0.043568 0.256294 0.089245 -0.070092 -0.352055 -0.169266 -0.175984 -0.012899 -0.047437 -0.091815 0.306734 -0.179270 -0.143043 -0.047132 -0.193871 -0.049613 -0.249516 -0.046223 0.274869 0.238521 0.129615 -0.202733 -0.261107 -0.042289 -0.091880 -0.281959 -0.037333 -0.119440 -0.161898 0.308331 0.087770 0.044167 0.007797 0.118327 0.196315 0.339038 -0.206479 -0.304187 -0.047738 -0.273384 0.019422 0.047151 0.001734 0.018292 -0.112687 -0.075265 -0.189015 -0.000114 -0.009345 0.045529 -0.139866 0.187741 -0.086236 0.172467 -0.052645 0.005333 -0.100245 0.104130 -0.163261 0.061218 0.089462 0.054197 0.084628 -0.154092 0.019729 -0.117314 -0.203322 -0.112618 -0.212992 -0.064576 0.292678 0.122314 -0.128743 0.003950 -0.384017 0.052800 -0.136549 0.307132 0.006736 0.406067 0.030832 0.203402 0.052589 -0.108957 -0.136937 -0.080591 0.103618 -0.016282 0.155966 0.066401 -0.065540 0.162282 0.066820 0.175683 -0.441253 -0.112740 0.055184 0.152032 -0.029911 -0.283472 0.262119 -0.091756 -0.315820 -0.266334 0.326378 0.260383 -0.053844
2283 0.012920 -0.070530 0.038430 -0.077961 0.006748 -0.142106 -0.147049 -0.155841 -0.012196 -0.032897 0.080865 -0.289150 0.150661 -0.115222 0.092821 0.008240 -0.079648 -0.083732 -0.013032 0.049749 -0.254083 0.097845 0.172924 0.009733 -0.052641 -0.352396 -0.109369 -0.131079 -0.023648 0.059515 -0.134332 0.250816 -0.105429 -0.005030 -0.128557 -0.076212 -0.028519 -0.342125 -0.041205 0.292224 0.188169 0.150532 -0.179919 -0.161135 -0.045260 -0.050710 -0.214633 -0.002217 -0.030358 -0.177728 0.213220 0.033449 0.047214 0.057367 0.050935 0.132160 0.314837 -0.066982 -0.163163 -0.016967 -0.116457 -0.035116 0.080972 -0.022841 0.074911 0.006146 -0.060658 -0.122504 0.071674 0.027181 0.091285 -0.108635 0.074905 -0.141281 0.190823 -0.043462 0.158088 -0.024838 0.056756 -0.158552 -0.002046 0.118425 -0.007544 0.092395 -0.137012 0.079229 -0.083526 -0.261337 -0.039050 -0.186043 -0.118477 0.222079 0.225875 -0.116489 -0.046235 -0.321476 -0.013539 -0.113055 0.248610 0.058824 0.433050 -0.124036 0.163949 0.038079 -0.066422 -0.049431 -0.043005 0.146274 -0.008232 0.102335 0.050929 -0.072961 0.039778 0.038551 0.154790 -0.313878 -0.112971 0.045268 0.136217 -0.046906 -0.261122 0.298486 -0.144050 -0.260901 -0.163284 0.282242 0.239427 -0.129896
2007 -0.021675 0.031567 -0.084203 0.003439 -0.085307 -0.080854 -0.053392 -0.139548 0.145527 0.013058 0.145756 -0.081802 0.158101 -0.140428 0.105686 -0.103614 -0.072525 -0.006732 -0.091676 0.065844 -0.134741 -0.044051 0.117212 0.020531 -0.047573 -0.274435 -0.097980 -0.087285 0.010950 -0.047443 -0.192321 0.251692 -0.065768 -0.162341 0.018460 -0.140307 0.016438 -0.232994 -0.195598 0.196761 0.168145 0.114084 -0.062518 -0.237776 -0.117322 -0.068330 -0.080640 -0.042098 -0.065121 -0.127662 0.263443 0.077563 -0.023999 0.016210 0.045211 0.122287 0.150963 -0.236006 -0.058037 0.005551 -0.144745 0.043406 0.123958 0.037396 -0.045314 -0.029989 0.051722 -0.183776 -0.071208 -0.026552 -0.063438 -0.070100 0.203132 -0.162478 0.102079 -0.004804 0.061181 0.040172 0.055957 -0.052475 0.030908 0.165138 -0.005488 0.056957 -0.053302 -0.008319 -0.096958 -0.182593 -0.084119 -0.118589 -0.045776 0.212599 0.059392 -0.149842 -0.068562 -0.269049 -0.039465 -0.013618 0.138042 0.023424 0.309635 -0.114636 0.098027 0.080224 0.012298 0.026540 -0.055110 0.193449 -0.024308 0.170996 0.012634 -0.068097 0.135920 0.087731 0.123061 -0.331168 -0.107209 0.080106 0.093545 -0.086774 -0.077660 0.292416 -0.027239 -0.303782 -0.118933 0.178177 0.218574 -0.137810
2598 -0.017403 -0.040536 0.016616 -0.047417 -0.059953 -0.080417 -0.083545 -0.147630 0.081625 -0.010621 0.156120 -0.232947 0.122139 -0.159513 0.073510 -0.102680 -0.098748 0.035641 -0.053420 0.086242 -0.203243 0.026054 0.211548 0.016942 -0.056162 -0.346738 -0.101957 -0.127881 -0.001852 0.015655 -0.164842 0.215624 -0.160840 -0.062677 -0.049989 -0.108770 -0.023030 -0.280681 -0.088503 0.331715 0.184840 0.130204 -0.161667 -0.230928 -0.047892 -0.063375 -0.177291 -0.015344 -0.086061 -0.145073 0.215655 0.046710 0.029991 0.051295 0.028732 0.139629 0.317218 -0.144353 -0.231942 -0.009189 -0.208206 -0.027811 0.020373 -0.024066 0.034400 -0.037762 -0.053311 -0.162398 -0.087727 0.004370 0.039100 -0.143987 0.194784 -0.138201 0.173061 -0.027194 0.055852 -0.062979 0.113321 -0.075835 0.011728 0.153648 -0.026645 0.100789 -0.136409 0.076380 -0.097427 -0.229070 -0.098412 -0.160696 -0.053484 0.275272 0.157776 -0.136316 -0.056277 -0.363732 0.019197 -0.131583 0.280845 0.025336 0.355942 -0.068490 0.167554 0.040751 -0.095800 -0.101351 -0.099242 0.166792 -0.033420 0.153885 0.065312 -0.053418 0.125629 0.063320 0.182405 -0.432882 -0.095629 0.079739 0.158148 -0.056669 -0.297286 0.268593 -0.055118 -0.279339 -0.204270 0.283865 0.287092 -0.120289
2333 -0.125575 0.006787 0.070663 -0.098264 -0.026420 -0.133840 -0.121682 -0.233612 0.072338 -0.037613 0.142847 -0.255280 0.203674 -0.181818 0.024334 -0.043883 -0.191922 0.103262 -0.034315 0.080460 -0.243175 0.072702 0.212468 0.116695 -0.078569 -0.316652 -0.152918 -0.168685 0.001661 -0.040462 -0.071331 0.288540 -0.157099 -0.143598 -0.055422 -0.146642 -0.050321 -0.201825 -0.042936 0.263933 0.189831 0.092209 -0.176592 -0.184380 -0.046017 -0.085328 -0.289833 -0.061819 -0.080415 -0.177197 0.243751 0.095747 0.034248 -0.023482 0.076372 0.170248 0.261726 -0.198172 -0.321683 -0.073526 -0.232580 -0.000200 0.065532 -0.003005 0.064284 -0.116848 -0.058964 -0.152484 0.011702 -0.018596 0.061733 -0.170801 0.164362 -0.055309 0.148018 -0.067341 -0.006105 -0.098890 0.095728 -0.128476 0.080492 0.064655 0.069408 0.030509 -0.178812 0.022760 -0.123380 -0.183220 -0.064081 -0.206195 -0.092283 0.287205 0.127778 -0.113769 0.019882 -0.280898 0.041915 -0.093744 0.281941 -0.014115 0.398630 -0.007591 0.205184 0.108928 -0.146820 -0.126663 -0.054814 0.110830 -0.028317 0.154767 0.049299 -0.019852 0.129014 0.055154 0.157841 -0.390009 -0.046571 0.042050 0.144163 -0.047258 -0.262097 0.258966 -0.096423 -0.296859 -0.308620 0.289450 0.231739 0.005556
2087 -0.038740 -0.038860 0.030013 -0.037626 -0.064411 -0.135770 -0.106846 -0.170922 0.123249 0.014415 0.116546 -0.207313 0.150689 -0.131424 0.066880 -0.107150 -0.103311 -0.020167 -0.051949 0.099253 -0.261578 0.073282 0.137330 0.070004 -0.062149 -0.363540 -0.153247 -0.097996 0.011535 0.007744 -0.123431 0.303484 -0.159269 -0.130376 -0.016645 -0.148339 -0.041096 -0.304446 -0.121555 0.277877 0.262969 0.141434 -0.102931 -0.289264 -0.083356 -0.073753 -0.159139 -0.010654 -0.084057 -0.183363 0.203066 0.103296 0.003775 0.040827 0.042498 0.172620 0.231061 -0.156874 -0.189502 0.024438 -0.187616 0.010932 0.108806 0.051803 -0.015446 -0.009420 0.019360 -0.201872 -0.050468 0.014449 -0.061611 -0.102434 0.251019 -0.179537 0.211967 -0.120603 0.037193 -0.018389 0.066346 -0.103227 0.013256 0.239067 -0.002476 0.078149 -0.123461 0.056592 -0.184801 -0.233661 -0.063041 -0.169074 -0.097886 0.227574 0.133582 -0.205640 -0.069750 -0.357382 -0.025481 -0.095072 0.270646 0.046768 0.425513 -0.103881 0.148617 0.034747 -0.098113 -0.053038 -0.089274 0.157121 -0.034910 0.172550 0.073411 -0.018359 0.079736 0.022725 0.144660 -0.395622 -0.137288 0.066008 0.142514 -0.114155 -0.313594 0.328063 -0.049624 -0.295686 -0.157999 0.239716 0.267061 -0.195610
2187 -0.017455 -0.017925 -0.006603 -0.011961 -0.106084 -0.099521 -0.065951 -0.131650 0.133234 0.018557 0.128243 -0.207983 0.123859 -0.135686 0.075520 -0.145813 -0.102646 -0.009979 -0.065279 0.131303 -0.227879 0.016357 0.151597 0.078849 -0.095838 -0.381118 -0.136162 -0.099603 0.037066 0.023351 -0.150306 0.269037 -0.190780 -0.141072 0.031946 -0.181876 -0.008511 -0.295539 -0.189187 0.343041 0.254805 0.138799 -0.109492 -0.306414 -0.099245 -0.072804 -0.107673 -0.007339 -0.106875 -0.164230 0.211170 0.111977 -0.000607 0.061050 0.017493 0.165074 0.228189 -0.183351 -0.175929 0.060673 -0.219074 0.000291 0.086871 0.068695 -0.020935 0.018175 0.037236 -0.216848 -0.136837 -0.011548 -0.081086 -0.117248 0.292720 -0.208881 0.224845 -0.110655 0.047696 0.002402 0.087001 -0.085261 -0.001346 0.278734 -0.031218 0.081292 -0.124659 0.042385 -0.161701 -0.228518 -0.100088 -0.141075 -0.042320 0.238864 0.129330 -0.240131 -0.103993 -0.406070 -0.048213 -0.084622 0.259615 0.046268 0.396475 -0.127933 0.170289 0.040834 -0.102453 -0.094322 -0.081395 0.201562 -0.033861 0.197893 0.041722 -0.025941 0.101010 0.039685 0.180429 -0.433594 -0.127531 0.095860 0.124098 -0.160375 -0.302875 0.335731 -0.024528 -0.309650 -0.203205 0.209238 0.304059 -0.199793
2282 -0.122811 -0.055204 0.092573 -0.089269 0.020814 -0.142657 -0.156502 -0.200358 0.055763 -0.040699 0.160558 -0.338114 0.133687 -0.185617 0.042987 -0.057816 -0.137143 0.106392 -0.052362 0.092478 -0.212120 0.072313 0.204074 0.100799 -0.084268 -0.382988 -0.164063 -0.203853 0.040053 -0.015931 -0.120207 0.254966 -0.205166 -0.151986 -0.071762 -0.147324 -0.058815 -0.246992 0.008498 0.257204 0.210522 0.163625 -0.182917 -0.230812 -0.034411 -0.070035 -0.308235 -0.041393 -0.089961 -0.204685 0.234251 0.077534 0.101190 0.009309 0.116736 0.144121 0.355120 -0.165291 -0.397125 -0.016823 -0.269002 -0.041048 0.037061 -0.002076 0.063164 -0.134118 -0.114572 -0.152193 0.009609 0.012422 0.074793 -0.160611 0.189659 -0.028101 0.241447 -0.038821 0.007152 -0.102094 0.123507 -0.149123 0.046467 0.109758 0.032221 0.075129 -0.190798 0.031581 -0.107192 -0.236918 -0.067873 -0.200211 -0.099430 0.287568 0.146787 -0.103562 0.049150 -0.400450 0.063168 -0.158351 0.296833 -0.019925 0.426365 -0.014366 0.239599 0.032583 -0.153907 -0.105964 -0.109479 0.076126 0.001546 0.105147 0.112752 -0.088877 0.130400 0.052964 0.178186 -0.418801 -0.066204 0.091253 0.175845 -0.011440 -0.349363 0.244560 -0.088311 -0.266988 -0.296698 0.339867 0.250178 -0.073938
2117 -0.043919 -0.127217 0.085683 -0.049913 0.027612 -0.110939 -0.097721 0.021263 -0.035647 -0.001057 0.229320 -0.207176 0.044529 -0.080893 0.060829 -0.075440 -0.068891 -0.041806 -0.103224 0.174408 -0.213674 0.131574 0.110855 -0.014086 0.011842 -0.416795 -0.108521 -0.079023 0.092278 0.109564 -0.171864 0.050682 -0.198210 -0.054081 -0.113906 -0.080033 -0.074448 -0.174811 0.005887 0.281153 0.085946 0.115882 -0.149791 -0.163962 -0.040137 -0.002233 -0.162652 -0.011981 -0.028396 -0.111494 0.136698 0.065533 0.063477 0.094210 -0.036617 0.063512 0.302517 -0.121498 -0.318078 0.038345 -0.132439 -0.071781 0.000723 -0.070909 0.091679 0.014380 -0.117118 -0.151990 -0.152089 0.038904 0.092760 -0.112418 0.158464 -0.021925 0.223964 0.009247 0.043858 -0.000639 0.138132 0.031652 -0.049674 0.192597 -0.136213 0.091722 -0.073994 0.117262 -0.088816 -0.306098 -0.085042 -0.113422 -0.077790 0.273386 0.264170 -0.064278 -0.040994 -0.289564 0.050773 -0.216958 0.208542 0.009468 0.340868 -0.103630 0.196494 0.015056 -0.103593 -0.084607 -0.187418 0.110131 0.092335 0.101091 0.080978 -0.122454 0.095095 -0.069002 0.165603 -0.359863 0.020272 0.102102 0.093453 0.010981 -0.400054 0.235643 -0.019751 -0.164555 -0.187772 0.295410 0.238843 -0.163530
2336 -0.027285 -0.053986 0.031040 -0.035686 -0.051548 -0.136791 -0.143855 -0.156501 0.095638 0.018594 0.128603 -0.231111 0.152064 -0.108612 0.071405 -0.113748 -0.117514 -0.015484 -0.074140 0.122169 -0.314250 0.087589 0.206660 0.022496 -0.028372 -0.413695 -0.137591 -0.094796 -0.019024 0.029509 -0.121140 0.268065 -0.130757 -0.049611 -0.069927 -0.152518 -0.043130 -0.307670 -0.123485 0.338651 0.212243 0.132255 -0.146844 -0.229423 -0.076994 -0.040145 -0.142814 -0.007337 -0.086042 -0.151314 0.207901 0.072899 -0.017511 0.066476 0.006027 0.166057 0.260525 -0.148520 -0.173164 -0.004339 -0.132674 0.006444 0.100076 -0.005884 -0.003156 0.020987 -0.008605 -0.178519 -0.094188 0.020227 0.000300 -0.126641 0.212505 -0.182809 0.183137 -0.122001 0.100237 -0.023992 0.063577 -0.093781 -0.024279 0.243589 -0.076882 0.121131 -0.063353 0.127745 -0.169016 -0.266329 -0.078523 -0.179740 -0.092763 0.271215 0.180130 -0.196021 -0.103230 -0.332427 -0.015134 -0.091143 0.278530 0.040378 0.436101 -0.115511 0.145487 0.020646 -0.073989 -0.077802 -0.131787 0.204126 -0.009267 0.178229 0.060993 -0.052866 0.112301 0.021825 0.146609 -0.435139 -0.135523 0.069186 0.139208 -0.070285 -0.386338 0.345906 -0.073061 -0.290360 -0.158214 0.255395 0.316205 -0.187259
2032 0.026734 -0.023100 -0.006161 -0.040301 -0.092213 -0.083925 -0.081102 -0.155212 0.129690 0.011056 0.144299 -0.209802 0.155696 -0.171828 0.102087 -0.079691 -0.085261 -0.011250 -0.060080 0.078325 -0.232992 0.021343 0.199447 0.007324 -0.081225 -0.366565 -0.098425 -0.113491 -0.002358 0.010254 -0.200292 0.265051 -0.143329 -0.076163 -0.037111 -0.131263 -0.024126 -0.333552 -0.133877 0.366368 0.224097 0.142427 -0.165335 -0.269280 -0.071700 -0.073726 -0.141865 -0.000791 -0.079642 -0.153133 0.225568 0.060684 -0.009397 0.056180 0.026083 0.159846 0.300310 -0.171276 -0.173800 0.011862 -0.198100 -0.004864 0.060830 0.008323 0.000728 0.002322 -0.006593 -0.195675 -0.076393 -0.013201 0.014915 -0.150254 0.235950 -0.222780 0.194434 -0.066328 0.068479 -0.019160 0.092557 -0.107648 0.008254 0.191455 -0.032020 0.120224 -0.135517 0.086619 -0.119743 -0.243371 -0.099117 -0.188859 -0.053658 0.284920 0.153189 -0.182283 -0.100837 -0.391394 -0.026568 -0.100325 0.286016 0.059978 0.383015 -0.115825 0.137836 0.045450 -0.073209 -0.081441 -0.076318 0.204636 -0.053909 0.183232 0.023858 -0.038375 0.114978 0.057798 0.188090 -0.436246 -0.144695 0.065383 0.142720 -0.113592 -0.289024 0.313593 -0.054637 -0.306121 -0.167403 0.268826 0.321165 -0.160555
2410 -0.321114 0.329868 -0.061662 0.081780 -0.046495 -0.270998 -0.152236 -0.270937 0.224658 -0.113356 0.477863 -0.182104 0.128009 0.111210 0.304153 -0.068613 -0.037865 -0.123261 0.005426 0.166534 -0.160188 0.213089 -0.228698 0.332546 0.046706 -0.202920 -0.105635 -0.117119 0.028821 -0.046207 -0.038809 0.281907 -0.066181 -0.450563 -0.059802 -0.085321 0.142784 0.001078 -0.289707 -0.228766 0.166976 0.128274 0.022827 -0.341848 -0.199341 0.003949 -0.176604 -0.269561 -0.052659 -0.308996 0.345559 0.248141 0.177726 -0.231448 0.150967 0.117761 -0.237989 -0.330833 0.008344 0.104200 -0.049158 0.075088 -0.025249 -0.035927 0.159081 0.046870 0.053352 -0.080424 -0.032750 0.076993 -0.328059 0.075631 0.282723 0.318733 -0.138578 0.018700 0.076753 -0.068197 -0.101288 -0.177979 0.116315 0.124088 -0.000709 -0.170727 -0.079012 -0.153785 -0.276497 -0.235668 0.064942 0.051782 -0.275875 0.216550 -0.193440 0.081369 0.005134 0.015777 -0.129514 -0.066535 -0.232386 -0.213597 0.438078 0.088015 0.098814 0.156751 0.015921 -0.013489 0.054563 0.178574 0.123663 -0.033081 0.105053 -0.119464 0.129927 -0.132879 -0.078305 -0.026490 0.066362 0.199210 -0.006986 0.001022 0.272913 0.405101 -0.270801 -0.322891 -0.185715 -0.157659 -0.088960 -0.278015
1945 -0.004735 -0.005932 -0.030139 -0.045541 -0.085829 -0.066241 -0.047459 -0.164341 0.118366 -0.005221 0.153860 -0.204779 0.160894 -0.176254 0.097245 -0.102643 -0.095305 0.006162 -0.031709 0.104241 -0.187311 0.012371 0.191020 0.029835 -0.080277 -0.362400 -0.112308 -0.134823 0.031161 -0.005327 -0.218364 0.259434 -0.157772 -0.097462 -0.009442 -0.137820 -0.014058 -0.321503 -0.139889 0.333977 0.212152 0.146697 -0.166904 -0.266528 -0.080239 -0.072644 -0.146032 -0.014143 -0.099567 -0.166687 0.246828 0.058486 0.004810 0.051856 0.015337 0.152399 0.291103 -0.173920 -0.193418 0.009144 -0.233596 -0.029481 0.063758 0.015199 -0.000825 -0.002644 0.030324 -0.175271 -0.092824 -0.008189 0.009796 -0.159541 0.238111 -0.193406 0.224830 -0.027935 0.065734 -0.024066 0.102605 -0.099401 0.029829 0.162971 -0.034496 0.086659 -0.164030 0.066223 -0.087259 -0.248452 -0.107047 -0.164738 -0.050205 0.293464 0.131864 -0.161769 -0.070275 -0.378193 -0.024284 -0.085498 0.295196 0.045666 0.378897 -0.127468 0.173432 0.053658 -0.104879 -0.069968 -0.054807 0.206198 -0.031235 0.180016 0.058259 -0.071897 0.140824 0.091227 0.201555 -0.442450 -0.149140 0.095164 0.142354 -0.117594 -0.271936 0.311782 -0.057593 -0.322081 -0.211845 0.282027 0.319895 -0.139290
2218 -0.294600 0.339621 -0.061572 0.087903 -0.061817 -0.293982 -0.164744 -0.314183 0.205640 -0.142185 0.470641 -0.246116 0.117531 0.121495 0.324110 -0.048909 -0.021362 -0.144502 0.016930 0.145309 -0.188077 0.218772 -0.217853 0.338042 0.046603 -0.190966 -0.083797 -0.118420 -0.002977 -0.031117 -0.010309 0.275873 -0.044554 -0.405981 -0.070980 -0.058216 0.147302 -0.015093 -0.275975 -0.222778 0.137233 0.111915 0.024631 -0.306668 -0.184222 0.020132 -0.147822 -0.252091 -0.062294 -0.305789 0.322065 0.231649 0.185716 -0.227774 0.133283 0.128983 -0.227960 -0.277227 0.072419 0.092078 -0.010091 0.084261 -0.039772 -0.026798 0.168029 0.075564 0.056569 -0.054041 -0.037894 0.105306 -0.307989 0.082374 0.281961 0.300645 -0.165429 -0.015600 0.102493 -0.061188 -0.113517 -0.201664 0.101908 0.150209 0.002255 -0.160796 -0.082060 -0.147457 -0.280652 -0.230739 0.079517 0.074373 -0.292276 0.218553 -0.181733 0.075373 -0.011411 0.005769 -0.157322 -0.063213 -0.235094 -0.229786 0.471581 0.066039 0.087172 0.155323 0.031534 -0.031854 0.069600 0.194001 0.107819 -0.040392 0.089914 -0.130862 0.110075 -0.157529 -0.113526 -0.021643 0.050616 0.193596 0.006075 0.020920 0.272128 0.430685 -0.319178 -0.321773 -0.171852 -0.195366 -0.095675 -0.302815
2229 -0.323005 0.325147 -0.045497 0.032809 -0.011568 -0.253824 -0.133785 -0.281807 0.189436 -0.114118 0.470672 -0.181540 0.141401 0.055518 0.267741 0.009108 -0.078908 -0.079521 0.038308 0.137779 -0.154938 0.218069 -0.182511 0.319418 0.053810 -0.154787 -0.090872 -0.143689 0.016288 -0.062516 -0.038288 0.261451 -0.072390 -0.398236 -0.090319 -0.034622 0.112406 0.020318 -0.222889 -0.209704 0.123806 0.092452 0.006933 -0.275162 -0.166344 -0.034978 -0.242181 -0.263646 -0.029521 -0.287724 0.338428 0.225359 0.170661 -0.249214 0.157641 0.115273 -0.213781 -0.298114 -0.095671 0.043482 -0.076138 0.056963 -0.064640 -0.056738 0.182978 -0.003173 0.009240 -0.049802 0.038745 0.056295 -0.222895 0.040697 0.207261 0.371903 -0.146317 0.062482 0.044732 -0.117908 -0.071292 -0.196827 0.136160 0.019497 0.045152 -0.189439 -0.146091 -0.162087 -0.220286 -0.191517 0.065646 -0.010884 -0.266425 0.236288 -0.175276 0.145274 0.065020 0.050394 -0.079701 -0.077046 -0.180967 -0.211998 0.394692 0.138377 0.131143 0.171123 -0.031232 -0.053738 0.057796 0.133129 0.083775 -0.055963 0.097317 -0.109391 0.148308 -0.111899 -0.055354 -0.000819 0.103011 0.157061 0.010462 0.034266 0.264171 0.331762 -0.272166 -0.323235 -0.230468 -0.100168 -0.112536 -0.167256
2206 -0.314861 0.352728 -0.076034 0.083205 -0.037378 -0.254457 -0.144919 -0.299651 0.212907 -0.137158 0.514025 -0.193085 0.137072 0.113446 0.308437 -0.043036 -0.033154 -0.091564 0.026150 0.160081 -0.168570 0.214452 -0.193543 0.341163 0.074360 -0.193903 -0.098336 -0.109850 0.000241 -0.063643 -0.034147 0.255383 -0.042705 -0.435351 -0.089936 -0.080921 0.148406 0.041878 -0.278701 -0.245426 0.122155 0.102165 0.023476 -0.302540 -0.188877 0.001387 -0.171996 -0.264508 -0.074097 -0.300229 0.337253 0.244466 0.156823 -0.219672 0.126774 0.117807 -0.254097 -0.311544 -0.000094 0.079484 -0.038490 0.071323 -0.086836 -0.073735 0.180559 0.050241 0.023578 -0.052528 -0.064374 0.079519 -0.286026 0.045173 0.274467 0.347660 -0.176066 0.020134 0.072697 -0.097555 -0.078975 -0.172121 0.096179 0.086184 -0.009670 -0.161950 -0.081995 -0.122387 -0.247493 -0.226042 0.040032 0.065257 -0.271277 0.255059 -0.215273 0.138906 0.010765 0.045082 -0.109837 -0.088451 -0.231380 -0.231139 0.404584 0.128583 0.106984 0.156421 0.023630 -0.054293 0.032837 0.180452 0.128867 -0.060381 0.103404 -0.149882 0.163304 -0.135076 -0.092685 -0.013081 0.063472 0.202356 -0.022743 0.034641 0.243177 0.403496 -0.289853 -0.309946 -0.184611 -0.148676 -0.093978 -0.248837
1983 -0.304381 0.300045 -0.071810 0.106821 -0.030080 -0.300151 -0.187341 -0.261203 0.230896 -0.105669 0.463551 -0.176993 0.133380 0.129197 0.329618 -0.081164 0.008822 -0.142390 -0.011904 0.166428 -0.164353 0.211845 -0.243416 0.304061 0.082359 -0.234179 -0.108343 -0.086996 0.016254 -0.045784 -0.049541 0.275570 -0.055337 -0.442240 -0.060078 -0.088553 0.139162 0.002066 -0.293401 -0.240895 0.156500 0.136544 0.059021 -0.330028 -0.228057 0.019456 -0.142123 -0.273120 -0.053065 -0.298856 0.347894 0.226255 0.157870 -0.223987 0.144199 0.101648 -0.251874 -0.333414 0.047644 0.112987 -0.014628 0.082782 -0.004196 -0.013962 0.117172 0.047440 0.048623 -0.093731 -0.051776 0.106833 -0.318982 0.092102 0.300320 0.302035 -0.144629 0.023621 0.113208 -0.053027 -0.097837 -0.156920 0.087320 0.179066 -0.034709 -0.134099 -0.032528 -0.149265 -0.287171 -0.258017 0.070219 0.064405 -0.306023 0.213502 -0.178864 0.085653 -0.010938 -0.004145 -0.135107 -0.057919 -0.249367 -0.214843 0.467978 0.057284 0.081482 0.119685 0.071839 0.026098 0.000324 0.191676 0.135441 -0.019322 0.117054 -0.147630 0.128505 -0.139877 -0.083565 -0.045901 0.049441 0.221425 -0.000356 0.013764 0.235548 0.414114 -0.243227 -0.315149 -0.123052 -0.148491 -0.082598 -0.320010
2068 0.017103 -0.029844 -0.007145 -0.077668 -0.068719 -0.091220 -0.088019 -0.150219 0.085041 0.014152 0.119362 -0.189595 0.178277 -0.157094 0.078524 -0.092079 -0.123463 -0.018416 -0.066763 0.091789 -0.257822 0.055248 0.209634 -0.001325 -0.058356 -0.378751 -0.087699 -0.117683 0.001840 0.015409 -0.182078 0.270933 -0.114856 -0.075813 -0.073807 -0.137120 -0.014986 -0.313172 -0.110194 0.325358 0.216750 0.131457 -0.144619 -0.209006 -0.054480 -0.072735 -0.158167 -0.000552 -0.063157 -0.154511 0.226328 0.056381 0.003171 0.066157 0.010333 0.134205 0.266526 -0.156636 -0.159120 -0.024652 -0.162427 -0.016370 0.088481 0.002756 0.013771 -0.025997 -0.000598 -0.177993 -0.039212 -0.006440 0.005859 -0.119586 0.202905 -0.208169 0.164521 -0.052435 0.089132 -0.013223 0.105523 -0.084808 0.003054 0.147099 -0.021053 0.075371 -0.111108 0.085008 -0.117925 -0.244638 -0.085725 -0.191360 -0.080811 0.274321 0.159991 -0.182675 -0.087243 -0.323099 -0.029678 -0.098690 0.281279 0.056194 0.416186 -0.129472 0.149586 0.072170 -0.085273 -0.064132 -0.075278 0.220576 -0.044792 0.162653 0.053566 -0.043114 0.121317 0.079196 0.163770 -0.416661 -0.129887 0.079180 0.141820 -0.094160 -0.274298 0.358526 -0.067303 -0.335519 -0.192199 0.282716 0.306755 -0.146201
2611 -0.341703 0.301394 -0.061847 0.115121 -0.045022 -0.282494 -0.188271 -0.272167 0.228137 -0.103444 0.492269 -0.187092 0.111008 0.108732 0.342394 -0.080337 -0.005577 -0.081603 0.016278 0.177650 -0.119680 0.200545 -0.225052 0.342857 0.079293 -0.235640 -0.120233 -0.126983 0.030287 -0.077305 -0.053037 0.265998 -0.072882 -0.454419 -0.047660 -0.093631 0.117645 0.023869 -0.250149 -0.264446 0.153355 0.140924 0.050846 -0.377114 -0.202146 0.020737 -0.176237 -0.279872 -0.078565 -0.298336 0.353199 0.227885 0.182029 -0.229704 0.175250 0.100122 -0.218711 -0.336957 -0.021690 0.115155 -0.073550 0.072486 -0.057626 -0.040748 0.129542 0.037583 0.025027 -0.090670 -0.040934 0.096500 -0.306122 0.070652 0.309545 0.356672 -0.127134 0.052817 0.073363 -0.092212 -0.060136 -0.177789 0.095269 0.105846 -0.025354 -0.145178 -0.052806 -0.163457 -0.257183 -0.251178 0.036478 0.049305 -0.280866 0.238412 -0.220955 0.111179 0.016844 -0.018891 -0.104839 -0.076159 -0.235764 -0.220935 0.421798 0.116032 0.104389 0.115901 0.051185 -0.014780 0.009269 0.176513 0.145656 -0.038021 0.135996 -0.182517 0.176276 -0.128698 -0.059919 -0.055652 0.066890 0.238604 -0.015987 0.030389 0.232554 0.376765 -0.260535 -0.297596 -0.167094 -0.106564 -0.090104 -0.284786
2542 -0.339876 0.301198 -0.047978 0.076003 -0.012639 -0.256356 -0.189012 -0.304830 0.206333 -0.113062 0.457963 -0.216913 0.153627 0.083759 0.301651 -0.023903 -0.049134 -0.054382 0.042109 0.142202 -0.152641 0.208782 -0.167033 0.339457 0.080363 -0.203550 -0.111508 -0.149962 -0.007372 -0.087444 -0.012859 0.284644 -0.063603 -0.416081 -0.086930 -0.055569 0.108624 0.033524 -0.226750 -0.224474 0.128125 0.131346 -0.004025 -0.292138 -0.180260 -0.020002 -0.213666 -0.277700 -0.074670 -0.294678 0.343126 0.213252 0.148682 -0.228731 0.175638 0.123030 -0.185575 -0.295866 -0.064266 0.056900 -0.055463 0.055326 -0.065924 -0.050369 0.142807 0.005414 -0.012119 -0.053145 0.016438 0.073193 -0.215711 0.032770 0.221970 0.359654 -0.153503 0.044251 0.056312 -0.129302 -0.084655 -0.192836 0.118462 0.042078 0.011344 -0.131864 -0.099813 -0.143525 -0.226723 -0.199782 0.043248 0.014121 -0.267279 0.233860 -0.187357 0.147059 0.035553 0.038573 -0.075665 -0.069273 -0.188938 -0.209009 0.398564 0.140703 0.114037 0.144925 0.010138 -0.045712 0.009335 0.143856 0.115500 -0.065140 0.120694 -0.152079 0.167942 -0.105220 -0.046885 -0.030647 0.059397 0.180564 -0.022214 0.055897 0.205819 0.340743 -0.269369 -0.288654 -0.170400 -0.086035 -0.088147 -0.190671
2324 -0.310679 0.313079 -0.015302 0.090698 -0.057749 -0.256991 -0.176368 -0.345555 0.198608 -0.135437 0.412837 -0.244227 0.183033 0.108342 0.240605 -0.086216 -0.091887 -0.018196 0.023581 0.162464 -0.206049 0.221378 -0.104395 0.355049 0.069704 -0.203508 -0.118793 -0.121596 -0.047065 -0.065387 0.081660 0.270083 -0.073773 -0.377303 -0.113373 -0.120777 0.126455 0.048838 -0.238460 -0.181344 0.112825 0.078942 -0.030840 -0.247830 -0.142809 0.005163 -0.194595 -0.212607 -0.118547 -0.271136 0.310985 0.230680 0.130300 -0.201335 0.098535 0.138476 -0.199614 -0.265080 -0.026484 0.049422 -0.041723 0.069586 -0.054419 -0.060352 0.142638 0.038834 0.020730 -0.044247 -0.088122 0.072580 -0.252183 0.008280 0.268029 0.305767 -0.195025 -0.066955 0.040502 -0.118609 -0.112432 -0.172688 0.118221 0.108012 0.016637 -0.128192 -0.053536 -0.094741 -0.280341 -0.179649 0.051213 0.051823 -0.269236 0.238961 -0.169699 0.077645 -0.010582 0.041484 -0.089995 -0.070224 -0.157337 -0.224996 0.395590 0.137143 0.121558 0.138332 -0.031379 -0.107006 0.032406 0.149284 0.128811 -0.024810 0.091635 -0.109180 0.126573 -0.144181 -0.120557 -0.051927 0.035755 0.175835 -0.026481 0.026511 0.144669 0.391755 -0.275042 -0.310527 -0.204242 -0.138828 -0.060760 -0.191043
2602 -0.334249 0.353776 -0.052017 0.093362 -0.046173 -0.263109 -0.145639 -0.294685 0.222039 -0.132781 0.494374 -0.197070 0.120585 0.105265 0.297337 -0.060372 -0.032508 -0.085346 0.030331 0.152622 -0.142352 0.209866 -0.216839 0.330669 0.033781 -0.173438 -0.101626 -0.122731 0.003261 -0.052833 -0.022784 0.251204 -0.063300 -0.434152 -0.069625 -0.061263 0.127735 0.023566 -0.261744 -0.230322 0.137025 0.099783 0.016537 -0.322287 -0.183353 -0.009179 -0.168441 -0.262546 -0.060277 -0.279820 0.316512 0.227183 0.173507 -0.222978 0.161239 0.104141 -0.234585 -0.299031 -0.019663 0.089745 -0.041830 0.072824 -0.066468 -0.059550 0.190271 0.043401 0.016457 -0.040223 -0.049155 0.092632 -0.301558 0.057633 0.284336 0.341101 -0.155353 0.021114 0.063729 -0.087509 -0.085302 -0.183729 0.115483 0.098356 0.005786 -0.177895 -0.101773 -0.152550 -0.258459 -0.229352 0.062242 0.060751 -0.281794 0.235962 -0.199948 0.125413 0.029445 0.017347 -0.108886 -0.094328 -0.226043 -0.229677 0.408340 0.102622 0.110622 0.155124 0.005516 -0.047767 0.048714 0.167952 0.116377 -0.053181 0.107804 -0.143049 0.147857 -0.142864 -0.084085 -0.040194 0.072422 0.195295 -0.011832 0.027364 0.278628 0.375089 -0.284938 -0.312220 -0.201716 -0.158732 -0.103496 -0.250619
2590 -0.308973 0.343489 -0.040993 0.074532 -0.036328 -0.302141 -0.191594 -0.341223 0.196047 -0.163756 0.478927 -0.259400 0.148039 0.140414 0.293133 -0.046101 -0.036275 -0.084526 0.025785 0.142690 -0.224739 0.238116 -0.161165 0.347409 0.071305 -0.205699 -0.087738 -0.128873 -0.039326 -0.053157 0.045743 0.287010 -0.028114 -0.400257 -0.116028 -0.091606 0.159534 0.013716 -0.297298 -0.220504 0.121437 0.097223 -0.042995 -0.264634 -0.179059 0.022981 -0.184322 -0.271808 -0.090496 -0.302658 0.356289 0.247736 0.164589 -0.228849 0.126979 0.137941 -0.230695 -0.296273 0.039608 0.066472 -0.003147 0.089656 -0.063150 -0.072610 0.176320 0.072786 0.023459 -0.030816 -0.039435 0.084052 -0.269061 0.034570 0.242637 0.333707 -0.198351 -0.048528 0.105260 -0.103724 -0.114074 -0.202542 0.120844 0.095399 0.006181 -0.146596 -0.054745 -0.104933 -0.267612 -0.197688 0.064562 0.062788 -0.290487 0.234649 -0.187954 0.116325 -0.003800 0.065439 -0.128611 -0.062369 -0.217719 -0.237305 0.424032 0.133367 0.088610 0.146457 0.009478 -0.066747 0.057335 0.172110 0.137616 -0.065806 0.076551 -0.126020 0.130802 -0.155151 -0.126157 0.001511 0.030890 0.175373 -0.021702 0.057053 0.216965 0.405567 -0.327378 -0.310521 -0.192383 -0.184341 -0.061060 -0.235314
1926 0.073358 -0.018713 -0.046528 -0.013847 -0.015225 -0.032048 -0.082534 -0.058939 0.086117 0.011542 0.203365 -0.035550 0.192818 -0.219315 0.152132 -0.056441 -0.044395 0.013310 -0.038544 0.085452 -0.182146 0.007325 0.255747 -0.180670 0.103558 -0.321264 -0.043514 -0.039550 -0.035534 -0.048862 -0.313336 0.158701 -0.011903 -0.071002 -0.115330 -0.083325 -0.040117 -0.309865 -0.104586 0.290431 0.053170 0.165182 -0.160823 -0.156854 -0.144615 -0.042241 -0.125462 -0.016681 -0.062159 -0.127802 0.241807 -0.056276 -0.077392 0.093047 0.003695 0.071806 0.243834 -0.176767 -0.095945 -0.056614 -0.089253 -0.031288 -0.004777 -0.125779 0.031222 -0.009146 -0.084340 -0.125903 -0.096574 0.005189 0.163034 -0.197704 0.146210 -0.133324 0.074952 0.121700 0.204965 -0.111960 0.074785 -0.029802 -0.047642 0.095916 -0.123908 0.189855 -0.037311 0.199223 -0.036385 -0.308937 -0.140371 -0.208918 -0.114097 0.409248 0.150518 0.000172 -0.112085 -0.249812 -0.002920 -0.126197 0.265708 0.031368 0.299986 -0.101510 0.063826 0.030557 0.055066 0.000061 -0.135137 0.268668 0.020948 0.167791 0.077616 -0.116505 0.240014 0.134287 0.191434 -0.433406 -0.140363 0.084959 0.097276 -0.007134 -0.293562 0.304646 -0.051537 -0.297065 -0.064165 0.344244 0.333004 -0.084806
2240 -0.352283 0.330732 -0.042328 0.092508 -0.040689 -0.311397 -0.180046 -0.354783 0.227123 -0.146699 0.466184 -0.268404 0.136661 0.134361 0.290359 -0.087805 -0.060014 -0.089402 0.015439 0.158005 -0.205093 0.235122 -0.188191 0.371133 0.036610 -0.202482 -0.114898 -0.122856 -0.015285 -0.054736 0.040442 0.315771 -0.071037 -0.438069 -0.078412 -0.103161 0.136922 -0.013743 -0.279202 -0.225037 0.170353 0.108305 0.005186 -0.342857 -0.183607 0.020614 -0.191453 -0.273252 -0.097292 -0.314590 0.352796 0.259091 0.189438 -0.237219 0.166545 0.161175 -0.226091 -0.307216 0.012183 0.098734 -0.039102 0.092625 -0.033631 -0.039225 0.169477 0.052388 0.037639 -0.071600 -0.030766 0.094109 -0.327896 0.065409 0.301105 0.340308 -0.175502 -0.059226 0.069251 -0.093038 -0.132089 -0.221096 0.125497 0.146372 0.013781 -0.169331 -0.077976 -0.151791 -0.315183 -0.223147 0.076197 0.061361 -0.308955 0.237112 -0.213879 0.076320 0.004015 0.006439 -0.139112 -0.077680 -0.239204 -0.255279 0.465135 0.129417 0.108113 0.159927 -0.007887 -0.063316 0.069696 0.161653 0.123737 -0.050758 0.082515 -0.124289 0.118946 -0.175244 -0.124444 -0.014267 0.054836 0.192163 -0.013893 0.017287 0.252680 0.435674 -0.332894 -0.342388 -0.200220 -0.216542 -0.105556 -0.286352
2560 -0.296598 0.295593 -0.022705 0.068073 -0.014005 -0.258427 -0.154585 -0.286655 0.197578 -0.147793 0.426669 -0.212054 0.163565 0.086610 0.235877 -0.060195 -0.038390 -0.058723 0.038152 0.151745 -0.189610 0.223955 -0.155458 0.315002 0.046391 -0.189842 -0.112054 -0.122335 -0.019599 -0.072055 0.021417 0.279336 -0.073781 -0.412416 -0.100019 -0.107235 0.125553 0.013213 -0.247368 -0.186203 0.143138 0.116669 -0.007461 -0.263089 -0.196473 -0.026563 -0.201022 -0.229534 -0.073489 -0.284826 0.293891 0.218566 0.135458 -0.184034 0.120932 0.134840 -0.205927 -0.265532 -0.053459 0.051515 -0.043441 0.032895 -0.013032 -0.016947 0.141432 -0.003498 0.024727 -0.059961 -0.035618 0.063920 -0.251834 0.023270 0.256088 0.294615 -0.138157 -0.026625 0.063936 -0.112882 -0.117194 -0.174683 0.134322 0.158287 0.021124 -0.148023 -0.098106 -0.102853 -0.293215 -0.215014 0.069764 0.026962 -0.299236 0.229613 -0.156419 0.080582 0.010011 0.007034 -0.099524 -0.092572 -0.147176 -0.198291 0.434420 0.120093 0.135521 0.117402 -0.044540 -0.033871 0.016080 0.146155 0.114993 -0.044789 0.110654 -0.102110 0.119988 -0.126255 -0.109090 -0.037785 0.016933 0.170314 -0.005271 0.025412 0.150586 0.378382 -0.275129 -0.328393 -0.174545 -0.113063 -0.066275 -0.229902
2369 -0.318545 0.321612 -0.053981 0.115601 -0.036819 -0.302583 -0.204075 -0.344010 0.209535 -0.163502 0.461337 -0.283193 0.142163 0.174119 0.308914 -0.080616 -0.010574 -0.081004 0.038985 0.174343 -0.206079 0.247511 -0.191799 0.370112 0.080549 -0.226945 -0.102252 -0.127770 -0.024171 -0.038698 0.045929 0.299053 -0.044723 -0.401018 -0.106758 -0.092989 0.163294 0.011348 -0.272108 -0.227288 0.144084 0.119615 -0.004063 -0.299130 -0.169946 0.027818 -0.166911 -0.260498 -0.114957 -0.318777 0.321197 0.241261 0.163262 -0.206034 0.114147 0.138766 -0.221901 -0.268342 0.048923 0.090457 -0.010386 0.055817 -0.057722 -0.041303 0.143268 0.082605 0.031315 -0.040673 -0.053890 0.091497 -0.281264 0.052477 0.269365 0.302054 -0.165793 -0.071752 0.096857 -0.109816 -0.133820 -0.194562 0.111492 0.151684 -0.021065 -0.139676 -0.053087 -0.091400 -0.301605 -0.225209 0.073222 0.073348 -0.306391 0.215213 -0.198815 0.087417 -0.024387 0.038906 -0.132947 -0.066129 -0.202391 -0.216386 0.437275 0.114694 0.090254 0.121383 0.004178 -0.057575 0.029162 0.166704 0.145111 -0.061141 0.115337 -0.117634 0.103009 -0.172280 -0.116042 -0.014246 0.017615 0.189475 -0.016920 0.032024 0.166315 0.410859 -0.319372 -0.298080 -0.154249 -0.176693 -0.080471 -0.276703
2123 -0.313654 0.370190 -0.052909 0.075135 -0.073462 -0.287622 -0.164144 -0.370809 0.208804 -0.160587 0.462634 -0.265128 0.159588 0.124707 0.294308 -0.044493 -0.060078 -0.091594 0.013259 0.124798 -0.221889 0.221019 -0.183719 0.362687 0.030785 -0.186615 -0.083483 -0.150118 -0.038128 -0.053181 0.042809 0.308317 -0.043957 -0.401966 -0.071009 -0.099791 0.169783 0.009148 -0.297875 -0.199836 0.142587 0.096122 -0.022841 -0.277922 -0.161532 0.012180 -0.176580 -0.260486 -0.083282 -0.300299 0.363156 0.253784 0.181968 -0.240078 0.141477 0.160264 -0.225888 -0.301298 0.039583 0.066348 -0.028861 0.096694 -0.045423 -0.053616 0.171131 0.066204 0.052890 -0.053561 -0.025386 0.081282 -0.304771 0.044479 0.252087 0.306795 -0.185707 -0.048476 0.096521 -0.068793 -0.108780 -0.226628 0.137432 0.099508 0.041182 -0.175470 -0.091241 -0.147476 -0.270913 -0.183886 0.065497 0.063235 -0.277874 0.220081 -0.201540 0.077920 -0.002094 0.033234 -0.145394 -0.044123 -0.217725 -0.238389 0.427853 0.104646 0.100502 0.174992 -0.004431 -0.068296 0.097761 0.177190 0.112676 -0.058590 0.065308 -0.124970 0.098715 -0.140958 -0.120110 0.012974 0.032872 0.172747 -0.014125 0.013405 0.281849 0.417389 -0.325892 -0.322759 -0.198006 -0.209288 -0.077851 -0.234938
2268 0.129768 0.124830 -0.093637 -0.023047 -0.222512 -0.000247 -0.015639 -0.184091 0.009632 -0.041240 0.140158 -0.198029 0.176919 -0.125547 0.102092 -0.087080 -0.141589 0.011413 -0.106446 0.014660 -0.258962 -0.071616 0.251795 -0.021163 -0.028551 -0.298409 0.020205 -0.058191 -0.102988 0.041378 -0.130557 0.148196 0.019596 0.015794 0.019308 -0.164695 0.024895 -0.240463 -0.189519 0.406427 0.078746 0.009078 -0.213652 -0.114845 -0.000489 0.011609 0.027928 0.019604 -0.130607 -0.054637 0.248988 0.003921 -0.065660 0.077365 -0.098064 0.098443 0.194864 -0.137593 0.092948 -0.041013 -0.044070 0.047173 -0.025340 -0.052234 0.021504 0.161468 0.034639 -0.114574 -0.238371 -0.037417 -0.012704 -0.200077 0.224232 -0.308506 0.005102 -0.119750 0.168599 0.024945 0.108497 -0.069177 -0.045322 0.084705 -0.057487 0.103676 -0.017658 0.154284 -0.017187 -0.148949 -0.173338 -0.071371 0.039222 0.296314 0.080654 -0.212685 -0.199073 -0.235034 -0.074476 0.022619 0.203336 -0.004915 0.275168 -0.187386 0.020219 0.168036 -0.020260 -0.176936 0.019758 0.369290 -0.060463 0.182285 -0.078273 -0.025026 0.143633 0.124902 0.158359 -0.456938 -0.130533 0.089335 0.054318 -0.137775 -0.230683 0.398169 -0.110076 -0.275008 -0.187614 0.182488 0.470946 -0.068145
1993 -0.309602 0.373838 -0.076306 0.077873 -0.075404 -0.261965 -0.113092 -0.320654 0.203130 -0.161787 0.489087 -0.211134 0.122662 0.134481 0.290288 -0.052941 -0.046960 -0.096717 0.032996 0.150105 -0.183219 0.209405 -0.215801 0.362293 0.030214 -0.169180 -0.070270 -0.132296 -0.002121 -0.030200 -0.003003 0.257815 -0.068070 -0.436782 -0.057959 -0.078905 0.168458 0.034051 -0.289132 -0.209473 0.140472 0.078492 0.022106 -0.304856 -0.170421 0.007013 -0.159322 -0.267342 -0.066171 -0.302585 0.335087 0.278051 0.181126 -0.239664 0.116366 0.127197 -0.267785 -0.292582 0.016339 0.082194 -0.043912 0.081399 -0.075118 -0.051393 0.185661 0.076849 0.039853 -0.054971 -0.065785 0.069985 -0.329492 0.051804 0.299522 0.317539 -0.168359 -0.016868 0.068698 -0.079766 -0.090371 -0.192125 0.139313 0.098087 0.026247 -0.204831 -0.105943 -0.151274 -0.262393 -0.190321 0.059342 0.071450 -0.282005 0.208962 -0.213851 0.098913 0.002262 0.036624 -0.136680 -0.080237 -0.228385 -0.231889 0.419364 0.090023 0.110593 0.196913 -0.021808 -0.071043 0.089356 0.174140 0.114130 -0.061558 0.081584 -0.114357 0.118101 -0.145549 -0.103574 -0.019168 0.060256 0.199299 -0.017076 -0.000015 0.293706 0.432151 -0.307811 -0.339160 -0.217850 -0.200566 -0.085988 -0.259425
2510 -0.001507 -0.000203 -0.030963 -0.060790 -0.065851 -0.085325 -0.041156 -0.125614 0.120640 0.008829 0.149087 -0.158965 0.170303 -0.182016 0.067020 -0.072115 -0.097706 -0.001761 -0.049022 0.086771 -0.209886 0.007570 0.144552 0.025795 -0.099272 -0.349772 -0.130332 -0.115589 0.006267 0.003374 -0.232949 0.303765 -0.140981 -0.134442 -0.013026 -0.119173 -0.017285 -0.344510 -0.171538 0.336307 0.236314 0.138791 -0.118902 -0.270482 -0.119366 -0.101663 -0.156929 -0.019709 -0.048492 -0.169773 0.239638 0.098379 -0.016331 0.057263 0.040034 0.162054 0.241041 -0.194154 -0.201415 0.010779 -0.226952 -0.003691 0.132771 0.032630 0.013932 -0.017943 0.012433 -0.207665 -0.046798 -0.023395 -0.018011 -0.123925 0.206254 -0.189236 0.228642 -0.033034 0.079968 -0.023147 0.069466 -0.104090 0.033912 0.193978 -0.008954 0.059039 -0.166194 0.034158 -0.122167 -0.240542 -0.074005 -0.202196 -0.064291 0.250567 0.145661 -0.176284 -0.065640 -0.363235 -0.035310 -0.072829 0.275117 0.053231 0.397782 -0.122764 0.168067 0.068263 -0.069625 -0.031483 -0.052166 0.191027 -0.064931 0.179003 0.046069 -0.023352 0.120344 0.096418 0.200845 -0.411767 -0.133012 0.056708 0.142006 -0.140965 -0.224222 0.316108 -0.045930 -0.339898 -0.188329 0.265177 0.310247 -0.138065
2150 -0.323307 0.320199 -0.058628 0.082007 -0.038247 -0.278718 -0.181093 -0.293640 0.226551 -0.124207 0.480276 -0.228891 0.126891 0.132894 0.316387 -0.079634 -0.011678 -0.101508 0.034038 0.164362 -0.168853 0.222160 -0.216064 0.347837 0.061910 -0.211536 -0.107914 -0.117518 -0.004033 -0.060514 -0.008753 0.268321 -0.076621 -0.451615 -0.092339 -0.075375 0.151026 0.002236 -0.273092 -0.234011 0.153313 0.134948 0.022243 -0.351336 -0.206643 -0.004498 -0.180780 -0.269024 -0.073405 -0.305690 0.310779 0.227404 0.164213 -0.220333 0.157803 0.125192 -0.227979 -0.290717 -0.002875 0.089961 -0.037563 0.043805 -0.072551 -0.037844 0.165120 0.042411 0.021959 -0.050341 -0.043821 0.102368 -0.306785 0.056884 0.280467 0.349626 -0.134870 0.005140 0.085042 -0.117941 -0.108533 -0.185645 0.120305 0.137055 -0.013024 -0.170265 -0.096809 -0.122444 -0.289540 -0.238334 0.065180 0.064925 -0.300308 0.215880 -0.201943 0.100715 0.011981 0.012631 -0.127431 -0.094370 -0.213208 -0.226529 0.448981 0.102489 0.111599 0.127917 -0.000369 -0.028360 0.026951 0.166594 0.146472 -0.049937 0.130602 -0.162711 0.131077 -0.146374 -0.105959 -0.033672 0.024946 0.201802 -0.006234 0.042819 0.219151 0.399577 -0.287359 -0.310777 -0.148818 -0.152116 -0.108393 -0.285776
2153 -0.066147 -0.019529 0.034409 -0.026086 -0.079320 -0.148390 -0.143475 -0.227909 0.107514 -0.017460 0.132206 -0.332291 0.163261 -0.107116 0.065706 -0.134342 -0.088224 0.048107 -0.073049 0.111778 -0.307323 0.071489 0.185345 0.099125 -0.091950 -0.424868 -0.167956 -0.127511 0.001338 0.015525 -0.076770 0.293228 -0.176313 -0.112681 -0.023167 -0.179853 -0.022152 -0.290724 -0.127481 0.325511 0.242285 0.146389 -0.187726 -0.288083 -0.070345 -0.049661 -0.159573 -0.027648 -0.136861 -0.198694 0.222394 0.096875 0.000023 0.067451 0.049983 0.198461 0.290232 -0.143190 -0.210634 0.023076 -0.191609 -0.008731 0.103916 0.049314 -0.021715 0.001550 -0.005969 -0.143693 -0.115073 0.007676 -0.024158 -0.155861 0.268208 -0.174015 0.224014 -0.184577 0.036914 -0.045330 0.044377 -0.135659 0.018433 0.262364 -0.026973 0.099941 -0.134377 0.094270 -0.174049 -0.234872 -0.070326 -0.143306 -0.079743 0.241738 0.127127 -0.208876 -0.074535 -0.374754 -0.016626 -0.089526 0.292683 0.020635 0.419532 -0.084713 0.173810 0.021628 -0.125200 -0.100701 -0.097220 0.140070 0.005456 0.154089 0.073658 -0.065432 0.078595 0.014480 0.134219 -0.414994 -0.182014 0.081395 0.112594 -0.078083 -0.396436 0.326567 -0.077158 -0.260399 -0.192888 0.229250 0.285818 -0.171408
2507 -0.355157 0.331968 -0.026275 0.074902 -0.038538 -0.307956 -0.182404 -0.345118 0.210085 -0.144749 0.472020 -0.248390 0.147065 0.103574 0.280098 -0.052833 -0.065889 -0.085215 0.017097 0.163137 -0.203524 0.238379 -0.198650 0.356422 0.037779 -0.213677 -0.110677 -0.154170 0.000073 -0.059191 0.016836 0.304720 -0.078354 -0.439573 -0.092943 -0.099917 0.139926 0.022015 -0.261006 -0.215878 0.141666 0.115570 0.001190 -0.298573 -0.185833 0.006072 -0.220330 -0.272176 -0.074473 -0.308289 0.354947 0.255955 0.180715 -0.242277 0.166087 0.132660 -0.215580 -0.306193 -0.030742 0.074451 -0.052474 0.076900 -0.029429 -0.047076 0.164929 0.012944 0.017427 -0.071374 -0.015158 0.083441 -0.276710 0.061580 0.257119 0.327704 -0.153047 -0.021041 0.061524 -0.090786 -0.102344 -0.202523 0.129325 0.119707 0.028254 -0.181765 -0.078590 -0.146257 -0.287845 -0.217904 0.068179 0.046577 -0.297483 0.225998 -0.181071 0.075538 0.030271 0.016026 -0.117729 -0.069038 -0.200720 -0.223878 0.446998 0.114988 0.125739 0.161599 -0.010056 -0.038389 0.047155 0.141599 0.118150 -0.044311 0.096347 -0.116846 0.113467 -0.135599 -0.100874 -0.019323 0.056352 0.183339 0.003135 0.027384 0.251597 0.401431 -0.303668 -0.336446 -0.222339 -0.168201 -0.102606 -0.238265
2464 -0.342925 0.382874 -0.062664 0.095336 -0.060115 -0.276440 -0.175327 -0.392922 0.214442 -0.164849 0.469065 -0.280795 0.183924 0.137649 0.300524 -0.056401 -0.052743 -0.068871 0.040443 0.146097 -0.213139 0.233563 -0.171025 0.388376 0.035898 -0.195471 -0.100140 -0.148074 -0.042377 -0.063805 0.063053 0.314903 -0.062002 -0.443684 -0.103095 -0.111742 0.170602 0.009208 -0.290784 -0.224166 0.158506 0.101587 -0.021519 -0.332437 -0.174149 0.003544 -0.200429 -0.268294 -0.114519 -0.330646 0.368480 0.256147 0.171803 -0.227552 0.146954 0.169287 -0.241968 -0.295327 0.028143 0.066635 -0.042411 0.081837 -0.059369 -0.053129 0.170348 0.072112 0.043900 -0.039674 -0.040464 0.080003 -0.321165 0.027571 0.288309 0.318522 -0.196912 -0.058441 0.070961 -0.116758 -0.124182 -0.242664 0.130386 0.097800 0.026134 -0.187748 -0.104647 -0.138891 -0.293474 -0.206872 0.063173 0.052291 -0.291369 0.247558 -0.233329 0.090862 0.001957 0.033172 -0.137496 -0.068573 -0.211632 -0.237360 0.453862 0.129033 0.115344 0.166417 -0.026502 -0.092963 0.091423 0.181243 0.129444 -0.069325 0.091216 -0.137817 0.127503 -0.148775 -0.132103 -0.016736 0.008003 0.186758 -0.032693 0.007915 0.249541 0.457628 -0.355625 -0.346893 -0.208216 -0.195911 -0.083987 -0.254703
2601 -0.336522 0.346457 -0.047967 0.091475 -0.057604 -0.280405 -0.178559 -0.340540 0.213776 -0.140687 0.489743 -0.252628 0.143955 0.125540 0.295584 -0.080074 -0.040848 -0.071881 0.015797 0.157128 -0.215691 0.233224 -0.179537 0.360605 0.051466 -0.211313 -0.117059 -0.122651 -0.018934 -0.063538 0.023157 0.297659 -0.053096 -0.431976 -0.078827 -0.115349 0.143955 0.012443 -0.273425 -0.231912 0.135371 0.103417 -0.003744 -0.316312 -0.192434 0.007997 -0.171723 -0.253986 -0.100870 -0.295044 0.339497 0.237293 0.168826 -0.219105 0.143920 0.144604 -0.235155 -0.287017 0.020676 0.074729 -0.022649 0.077011 -0.053113 -0.044118 0.145290 0.044851 0.035210 -0.044789 -0.077151 0.094831 -0.289078 0.045076 0.290065 0.311153 -0.168485 -0.040823 0.077965 -0.108370 -0.112257 -0.204084 0.110705 0.148673 -0.003510 -0.148091 -0.061452 -0.118308 -0.281937 -0.208990 0.060371 0.061458 -0.281169 0.228908 -0.210082 0.084225 0.003788 0.014470 -0.109336 -0.073712 -0.192533 -0.231414 0.417036 0.122744 0.110721 0.132383 0.006710 -0.053581 0.022735 0.152027 0.142528 -0.038548 0.104757 -0.138830 0.125454 -0.145042 -0.114548 -0.031032 0.026602 0.188897 -0.014584 0.024359 0.196206 0.398106 -0.295542 -0.299540 -0.178775 -0.166064 -0.086396 -0.249675
1938 -0.349961 0.353597 -0.041679 0.068126 -0.041766 -0.301307 -0.179545 -0.342346 0.218572 -0.154920 0.475706 -0.236162 0.158515 0.126738 0.290713 -0.053876 -0.050240 -0.090935 0.032830 0.167028 -0.226099 0.257351 -0.190998 0.357475 0.052889 -0.213441 -0.113514 -0.136566 -0.001639 -0.057528 0.026383 0.310694 -0.064136 -0.440463 -0.099513 -0.111642 0.158287 -0.004944 -0.280484 -0.227719 0.164398 0.122829 -0.018195 -0.336021 -0.182144 0.005909 -0.224956 -0.259919 -0.096458 -0.332446 0.357984 0.260536 0.181432 -0.237771 0.158575 0.157039 -0.231975 -0.303947 -0.023456 0.082027 -0.046587 0.057923 -0.049789 -0.041574 0.174061 0.047929 0.036683 -0.064920 -0.007546 0.083466 -0.319238 0.050309 0.276483 0.350003 -0.151420 -0.033087 0.089883 -0.118537 -0.130435 -0.246582 0.152464 0.123306 0.013976 -0.183532 -0.090364 -0.136633 -0.307644 -0.226116 0.075737 0.037176 -0.308864 0.223307 -0.213313 0.076774 0.019674 0.021351 -0.126807 -0.072633 -0.195566 -0.234129 0.446931 0.127699 0.126836 0.142794 -0.032910 -0.054833 0.076860 0.138452 0.124059 -0.054360 0.108100 -0.126917 0.120531 -0.150095 -0.133530 -0.003262 0.018992 0.183665 -0.010449 0.013397 0.219077 0.415691 -0.306829 -0.331103 -0.183591 -0.162877 -0.097313 -0.250027
2624 -0.300370 0.295997 -0.028271 0.071097 0.019284 -0.291083 -0.175677 -0.232667 0.193857 -0.111362 0.503536 -0.175482 0.123906 0.122231 0.287253 -0.042705 -0.020832 -0.119497 0.027108 0.166827 -0.204133 0.252647 -0.204515 0.274677 0.098840 -0.201914 -0.089917 -0.091210 -0.003079 -0.056069 -0.038618 0.238369 -0.053975 -0.429910 -0.135571 -0.042555 0.132402 0.002686 -0.262220 -0.242082 0.110519 0.115402 0.030440 -0.269948 -0.226126 -0.000154 -0.194365 -0.259795 -0.014664 -0.301884 0.292616 0.230438 0.158647 -0.191600 0.141934 0.097318 -0.239275 -0.294148 -0.032650 0.067867 0.003081 0.060388 -0.034641 -0.076024 0.201711 0.024278 -0.016149 -0.049553 -0.023017 0.100383 -0.262010 0.070908 0.229085 0.372827 -0.175610 0.036037 0.092508 -0.118313 -0.114130 -0.164810 0.099999 0.132108 -0.032866 -0.156181 -0.075513 -0.105295 -0.284885 -0.268392 0.091937 0.045869 -0.339598 0.238184 -0.135960 0.167367 0.027522 0.077858 -0.104321 -0.104274 -0.232288 -0.227423 0.444109 0.115557 0.110320 0.116345 0.021329 -0.009187 -0.004349 0.164450 0.140417 -0.073788 0.118287 -0.150074 0.130667 -0.165796 -0.126620 0.015174 0.057290 0.162689 -0.014007 0.065628 0.216713 0.381239 -0.275231 -0.306299 -0.128447 -0.146531 -0.110982 -0.277124
2244 -0.340657 0.360634 -0.030337 0.083531 -0.052689 -0.292365 -0.187742 -0.332931 0.220157 -0.146367 0.505171 -0.250319 0.135342 0.142817 0.285969 -0.066682 -0.060527 -0.076437 0.006066 0.152643 -0.222899 0.236410 -0.187256 0.347347 0.072922 -0.200938 -0.100165 -0.119080 -0.026046 -0.060513 0.049093 0.272353 -0.057667 -0.418806 -0.088332 -0.104539 0.148479 0.028901 -0.280504 -0.233916 0.116147 0.092291 -0.015267 -0.294583 -0.177599 0.020245 -0.190452 -0.263984 -0.099453 -0.296439 0.336741 0.257225 0.166313 -0.223301 0.132550 0.142740 -0.255697 -0.300595 0.014985 0.077078 -0.013962 0.083912 -0.081056 -0.065460 0.182266 0.067481 0.023894 -0.047890 -0.068881 0.085705 -0.302954 0.055360 0.298303 0.367828 -0.206081 -0.031952 0.087443 -0.117909 -0.124376 -0.209791 0.129557 0.129286 -0.002478 -0.161537 -0.059882 -0.121027 -0.308772 -0.199937 0.068862 0.075955 -0.296883 0.248224 -0.211870 0.105997 -0.009525 0.048238 -0.112158 -0.097763 -0.235184 -0.265201 0.429143 0.144140 0.109075 0.154680 -0.003133 -0.083052 0.047619 0.169202 0.153874 -0.062790 0.095654 -0.147610 0.142382 -0.182676 -0.138113 -0.003008 0.047397 0.200503 -0.033851 0.051338 0.212882 0.432802 -0.313974 -0.317628 -0.179822 -0.192000 -0.085789 -0.253072
2138 -0.033460 -0.047287 0.010189 -0.012196 -0.033614 -0.137396 -0.098211 -0.131998 0.080237 0.002212 0.142705 -0.172233 0.169765 -0.126338 0.052216 -0.125692 -0.105454 0.022252 -0.086866 0.132875 -0.255826 0.051690 0.156464 0.012073 -0.047725 -0.401901 -0.139666 -0.093622 0.015459 0.016974 -0.173287 0.258701 -0.140588 -0.127777 -0.025749 -0.189127 -0.032112 -0.305966 -0.149038 0.332978 0.210024 0.135120 -0.154876 -0.233285 -0.120510 -0.050812 -0.149022 -0.017636 -0.101810 -0.179527 0.240640 0.100894 -0.016744 0.075155 0.006018 0.152213 0.247873 -0.200149 -0.193304 0.021477 -0.177385 -0.014423 0.152577 0.038874 -0.024186 0.014106 -0.008953 -0.208286 -0.117550 -0.006426 -0.009948 -0.141214 0.232205 -0.188354 0.220839 -0.122211 0.070131 0.003422 0.058434 -0.071307 0.014382 0.266247 -0.064307 0.101672 -0.100023 0.104472 -0.148650 -0.283614 -0.085946 -0.174079 -0.085847 0.282725 0.194589 -0.210996 -0.097343 -0.351462 -0.018815 -0.066773 0.273526 0.014369 0.429869 -0.145932 0.165108 0.054202 -0.093495 -0.032847 -0.114627 0.201287 0.008794 0.180199 0.044783 -0.060693 0.111198 0.051192 0.158650 -0.435896 -0.126898 0.066522 0.129515 -0.095740 -0.340316 0.354903 -0.039011 -0.317857 -0.180899 0.256418 0.338670 -0.160856
2220 -0.329694 0.328060 -0.012835 0.084469 -0.014525 -0.312850 -0.225020 -0.337731 0.203932 -0.146452 0.496012 -0.301769 0.132579 0.162608 0.315783 -0.045464 -0.019049 -0.089266 0.037794 0.146963 -0.219459 0.268031 -0.181259 0.358135 0.099209 -0.217402 -0.101418 -0.117900 -0.039042 -0.047870 0.054918 0.265944 -0.054741 -0.410281 -0.128299 -0.077020 0.163545 0.042359 -0.266452 -0.252768 0.114929 0.109924 -0.007914 -0.284121 -0.175280 0.024521 -0.200550 -0.289589 -0.082161 -0.331054 0.348564 0.253518 0.189649 -0.237000 0.143254 0.136323 -0.238941 -0.291380 0.006804 0.079024 -0.005974 0.078908 -0.100087 -0.086775 0.182219 0.057556 -0.000341 -0.039893 -0.061269 0.111934 -0.271315 0.057632 0.257433 0.379684 -0.211936 -0.028597 0.104633 -0.126549 -0.113741 -0.201460 0.094854 0.126248 -0.001366 -0.134592 -0.058275 -0.118462 -0.297940 -0.228008 0.058074 0.090007 -0.321346 0.245402 -0.192339 0.144275 0.016590 0.049140 -0.102254 -0.105898 -0.239254 -0.266007 0.462070 0.155337 0.106523 0.127620 0.010164 -0.074439 0.009550 0.169061 0.156419 -0.078312 0.112688 -0.158382 0.130444 -0.189102 -0.141406 -0.003240 0.056853 0.194805 -0.014761 0.085910 0.190301 0.404435 -0.327133 -0.288442 -0.163798 -0.183480 -0.103775 -0.265253
2088 -0.287010 0.361417 -0.065732 0.077246 -0.049874 -0.246187 -0.140031 -0.279748 0.194097 -0.138251 0.497382 -0.194869 0.117697 0.120541 0.323635 -0.021574 -0.040327 -0.114041 0.035324 0.146694 -0.183448 0.218319 -0.213415 0.326069 0.066771 -0.164090 -0.064023 -0.119651 -0.005512 -0.045496 -0.028229 0.246701 -0.041030 -0.384303 -0.093811 -0.037918 0.132489 0.027753 -0.261675 -0.216436 0.109173 0.102316 0.003287 -0.272724 -0.171777 0.002161 -0.167330 -0.270046 -0.051688 -0.287144 0.319226 0.210989 0.167638 -0.239188 0.124249 0.095236 -0.245302 -0.279389 0.008012 0.078022 -0.019872 0.053146 -0.103284 -0.081755 0.199955 0.073600 0.029966 -0.018429 -0.041698 0.085318 -0.262305 0.040313 0.242237 0.332464 -0.167421 0.039043 0.099239 -0.091135 -0.091873 -0.185791 0.100638 0.054627 -0.004475 -0.169595 -0.104881 -0.130698 -0.224534 -0.197563 0.065790 0.064688 -0.275061 0.236135 -0.192581 0.143139 0.016887 0.064989 -0.111160 -0.075316 -0.215113 -0.218401 0.398328 0.090519 0.098798 0.156879 0.009434 -0.054904 0.053742 0.187814 0.120765 -0.070592 0.101452 -0.146277 0.140594 -0.120936 -0.077632 -0.005309 0.062988 0.199941 -0.009256 0.030235 0.258634 0.382679 -0.287630 -0.293875 -0.177909 -0.146772 -0.095691 -0.245066
2131 -0.330446 0.342141 -0.031296 0.063513 -0.021849 -0.307044 -0.196476 -0.345756 0.198429 -0.158077 0.477687 -0.242139 0.145266 0.140956 0.288389 -0.025727 -0.057721 -0.115480 0.019815 0.129025 -0.223453 0.263360 -0.166014 0.331858 0.070719 -0.190821 -0.079095 -0.136483 -0.044177 -0.043428 0.042024 0.276613 -0.022897 -0.383894 -0.120787 -0.064140 0.154051 0.020797 -0.271209 -0.215029 0.115130 0.094052 -0.025424 -0.249716 -0.162442 0.009733 -0.203310 -0.267630 -0.065476 -0.293252 0.340811 0.225415 0.161065 -0.234551 0.134654 0.136945 -0.225451 -0.283620 0.030315 0.053378 0.020993 0.093418 -0.042658 -0.081622 0.205906 0.056866 0.003174 -0.031352 -0.011032 0.086178 -0.255511 0.047819 0.213048 0.358489 -0.206195 -0.027722 0.116499 -0.103398 -0.127872 -0.208717 0.118806 0.106110 0.009372 -0.151386 -0.066644 -0.102871 -0.285264 -0.216289 0.081078 0.043146 -0.303136 0.246558 -0.159526 0.121073 0.005129 0.071240 -0.127619 -0.068804 -0.233923 -0.256499 0.449513 0.123842 0.095165 0.162249 0.016010 -0.059922 0.061214 0.176421 0.130302 -0.057466 0.071541 -0.119774 0.114091 -0.172894 -0.128692 0.019422 0.067348 0.157046 -0.013266 0.070758 0.244490 0.405696 -0.336665 -0.331462 -0.184362 -0.200956 -0.093961 -0.238084
2224 0.005707 -0.046236 -0.025069 -0.008719 -0.057802 -0.090084 -0.067162 -0.100142 0.113018 0.039021 0.139893 -0.161179 0.134743 -0.117117 0.097087 -0.124128 -0.074996 -0.029827 -0.068559 0.128339 -0.204111 0.022887 0.165287 0.034168 -0.037907 -0.379945 -0.134144 -0.077221 0.011880 -0.002229 -0.185274 0.255816 -0.138572 -0.111800 -0.021541 -0.135670 -0.027132 -0.312028 -0.125785 0.307790 0.235489 0.131150 -0.098854 -0.300967 -0.101000 -0.091009 -0.122922 -0.010337 -0.092583 -0.147633 0.229613 0.075380 -0.003557 0.070716 0.026589 0.153287 0.250676 -0.189423 -0.163611 0.032773 -0.188362 -0.013486 0.065095 0.045439 -0.014928 0.017275 -0.005483 -0.223807 -0.099514 0.008395 -0.032991 -0.105770 0.254316 -0.188735 0.201451 -0.040589 0.066205 -0.023838 0.085464 -0.067528 -0.023317 0.238440 -0.067292 0.102282 -0.110424 0.073952 -0.133380 -0.265902 -0.099700 -0.160664 -0.074453 0.262773 0.148173 -0.168243 -0.088406 -0.373981 -0.003572 -0.106085 0.258690 0.055243 0.394484 -0.106241 0.167286 0.021991 -0.049963 -0.070297 -0.112322 0.185354 -0.024121 0.178383 0.081220 -0.065987 0.141125 0.045301 0.196977 -0.452983 -0.149674 0.091658 0.133430 -0.105293 -0.327533 0.331382 -0.029788 -0.311196 -0.140615 0.287385 0.313690 -0.197281
2073 -0.334356 0.367860 -0.051546 0.071611 -0.049064 -0.324792 -0.177258 -0.353991 0.213285 -0.176172 0.493810 -0.269585 0.149930 0.142310 0.319384 -0.040169 -0.037884 -0.133694 0.028348 0.142799 -0.222895 0.256372 -0.223783 0.366384 0.040243 -0.200065 -0.085963 -0.132876 -0.026765 -0.039813 0.021358 0.296948 -0.051440 -0.415836 -0.107263 -0.081154 0.176881 0.007415 -0.303814 -0.242044 0.141260 0.105455 0.005787 -0.302807 -0.170532 0.012898 -0.190965 -0.288434 -0.058841 -0.331442 0.357085 0.268194 0.200702 -0.249585 0.151518 0.141767 -0.248768 -0.299092 0.038866 0.089643 -0.004438 0.092196 -0.048767 -0.066025 0.188786 0.071857 0.034300 -0.051005 -0.034284 0.110390 -0.315324 0.070987 0.264755 0.340415 -0.191191 -0.031712 0.117003 -0.082177 -0.115918 -0.223897 0.127949 0.142985 0.020276 -0.179863 -0.088970 -0.155099 -0.299452 -0.223162 0.079651 0.078403 -0.316155 0.231831 -0.198912 0.104789 0.010920 0.049735 -0.148421 -0.073915 -0.255408 -0.249971 0.480441 0.114278 0.110756 0.176618 0.011442 -0.046292 0.070070 0.183890 0.116144 -0.077610 0.078454 -0.134771 0.098977 -0.165289 -0.128331 0.010948 0.050115 0.196298 -0.002901 0.030044 0.294066 0.440741 -0.341895 -0.340346 -0.193458 -0.219596 -0.100612 -0.281129
1917 -0.325994 0.387769 -0.071584 0.093315 -0.057367 -0.300582 -0.149487 -0.309613 0.221734 -0.157475 0.515193 -0.245838 0.116834 0.153461 0.332145 -0.032587 -0.028066 -0.162672 0.030231 0.138880 -0.195533 0.241042 -0.254787 0.360504 0.051942 -0.187275 -0.072761 -0.120763 -0.018259 -0.020751 -0.010782 0.269645 -0.064003 -0.429284 -0.076107 -0.066710 0.173199 0.017869 -0.326140 -0.234433 0.149559 0.090728 0.019212 -0.316690 -0.173984 0.014853 -0.164369 -0.292925 -0.043652 -0.318849 0.341858 0.259493 0.196337 -0.264899 0.136092 0.127871 -0.297181 -0.305560 0.065912 0.108365 -0.011244 0.090227 -0.079411 -0.065322 0.195824 0.082198 0.037512 -0.051240 -0.044517 0.085810 -0.322369 0.088530 0.268406 0.337562 -0.176834 -0.015984 0.111906 -0.069724 -0.105804 -0.190250 0.114451 0.124923 0.006295 -0.175152 -0.088597 -0.140587 -0.282709 -0.218223 0.076483 0.089328 -0.289151 0.219389 -0.205864 0.095033 -0.007430 0.039237 -0.151322 -0.078933 -0.270754 -0.242294 0.454299 0.095202 0.088632 0.180920 0.012752 -0.053647 0.074555 0.202283 0.103451 -0.059531 0.070502 -0.119557 0.119537 -0.171944 -0.104701 0.002551 0.076015 0.206541 -0.016857 0.022314 0.310547 0.439767 -0.320526 -0.347690 -0.188734 -0.214313 -0.095391 -0.294131
2564 -0.311129 0.330551 -0.019801 0.064499 -0.032219 -0.292542 -0.182670 -0.309484 0.195291 -0.145585 0.478243 -0.250910 0.127058 0.140400 0.289405 -0.031149 -0.061436 -0.107047 0.020810 0.135425 -0.225231 0.250510 -0.190380 0.342394 0.048886 -0.187515 -0.087036 -0.112861 -0.018486 -0.042442 0.024112 0.275950 -0.056798 -0.406197 -0.108648 -0.070581 0.153078 0.011483 -0.273373 -0.223666 0.135711 0.101850 0.005173 -0.279881 -0.175913 0.013832 -0.192258 -0.264910 -0.064252 -0.305819 0.319030 0.247529 0.182770 -0.227427 0.153533 0.138536 -0.231276 -0.282538 -0.012135 0.062628 -0.024323 0.081123 -0.063541 -0.062981 0.195926 0.060059 0.028550 -0.049673 -0.030465 0.097990 -0.282193 0.058435 0.254735 0.348170 -0.167974 -0.029098 0.081717 -0.104129 -0.111287 -0.212585 0.121484 0.128045 0.009744 -0.172528 -0.098026 -0.143737 -0.282600 -0.205251 0.081972 0.065210 -0.298368 0.215221 -0.174517 0.117219 0.025459 0.042765 -0.120309 -0.095244 -0.214724 -0.238219 0.441062 0.114820 0.122104 0.147204 -0.007696 -0.059219 0.056936 0.154683 0.124377 -0.066405 0.092388 -0.129497 0.097992 -0.168200 -0.129194 0.000734 0.053565 0.173654 0.007517 0.049959 0.231246 0.393848 -0.313448 -0.293384 -0.180023 -0.184080 -0.102149 -0.250125
2292 -0.030683 -0.030208 0.020248 -0.018344 -0.069653 -0.128987 -0.127424 -0.166241 0.097732 -0.002801 0.145464 -0.259613 0.122119 -0.110102 0.070187 -0.133518 -0.102254 0.022452 -0.077843 0.121713 -0.255988 0.068360 0.210486 0.067802 -0.052995 -0.401800 -0.142345 -0.086443 0.001185 0.016343 -0.080009 0.237929 -0.155913 -0.074210 -0.036831 -0.138263 -0.004020 -0.236956 -0.112658 0.292843 0.184315 0.124959 -0.139281 -0.245548 -0.054251 -0.031301 -0.129201 -0.029459 -0.120817 -0.140876 0.167426 0.083918 -0.015591 0.054050 0.006098 0.154054 0.222322 -0.140745 -0.185295 0.021708 -0.159551 -0.027216 0.031719 0.007541 0.002060 0.016453 0.002328 -0.148649 -0.152313 0.024405 -0.044463 -0.143035 0.233130 -0.127525 0.158294 -0.122710 0.055580 -0.043843 0.049175 -0.082667 0.001980 0.228049 -0.055758 0.111648 -0.094459 0.102523 -0.150962 -0.215081 -0.084076 -0.101289 -0.074780 0.254508 0.124156 -0.160884 -0.086340 -0.294543 -0.009709 -0.076492 0.217489 0.003311 0.347609 -0.084264 0.144211 0.007098 -0.088242 -0.110540 -0.102625 0.161530 0.018835 0.140686 0.071165 -0.066751 0.098117 0.002166 0.124543 -0.389762 -0.116830 0.090524 0.106518 -0.077211 -0.328987 0.299925 -0.050670 -0.239295 -0.168116 0.193277 0.239827 -0.148937
1946 -0.313950 0.353619 -0.033687 0.060086 -0.037366 -0.292829 -0.178926 -0.302059 0.190937 -0.163504 0.513011 -0.252255 0.100665 0.149780 0.301927 -0.022031 -0.043985 -0.127538 0.028635 0.134742 -0.224976 0.259114 -0.193197 0.321965 0.071860 -0.169556 -0.070957 -0.113063 -0.031940 -0.034277 0.027806 0.260685 -0.032585 -0.399199 -0.127972 -0.036128 0.142570 0.027626 -0.260092 -0.229908 0.100701 0.087713 0.002329 -0.256210 -0.170091 0.021563 -0.189550 -0.266469 -0.058985 -0.308003 0.325278 0.238020 0.176089 -0.247095 0.122968 0.123323 -0.250004 -0.276038 0.024138 0.067902 0.009619 0.079092 -0.090104 -0.088404 0.239485 0.068152 0.017574 -0.021259 -0.050507 0.106801 -0.274761 0.062328 0.243755 0.373737 -0.226734 -0.008899 0.106705 -0.112718 -0.121335 -0.202435 0.113050 0.093531 0.001264 -0.170227 -0.082978 -0.125294 -0.290375 -0.220023 0.090619 0.080949 -0.316681 0.256470 -0.176889 0.152287 0.010702 0.088410 -0.118692 -0.095125 -0.256181 -0.273628 0.444343 0.122233 0.092109 0.167510 0.003136 -0.074837 0.048074 0.177540 0.132300 -0.078456 0.094002 -0.145924 0.135509 -0.175307 -0.139087 0.022870 0.084518 0.190772 -0.018247 0.066410 0.262225 0.420086 -0.339990 -0.319232 -0.176203 -0.205678 -0.122855 -0.270601
2078 -0.308543 0.322553 -0.043987 0.085340 -0.029165 -0.293050 -0.195231 -0.345626 0.188384 -0.145395 0.437639 -0.262051 0.149864 0.137850 0.300286 -0.036500 -0.036346 -0.100562 0.031594 0.148075 -0.208398 0.247520 -0.172724 0.334949 0.082863 -0.204480 -0.096685 -0.129116 -0.023301 -0.050222 0.038515 0.273651 -0.045849 -0.384734 -0.108957 -0.091418 0.152194 0.020403 -0.263854 -0.224547 0.127620 0.100554 -0.018838 -0.269097 -0.167855 0.027673 -0.190511 -0.251388 -0.089319 -0.317162 0.331733 0.229383 0.161385 -0.230177 0.128301 0.129071 -0.228064 -0.276894 0.044750 0.072623 -0.000832 0.072426 -0.058206 -0.059890 0.164229 0.070986 0.022467 -0.025664 -0.027938 0.099794 -0.270570 0.058663 0.252821 0.337917 -0.185854 -0.040867 0.107273 -0.105321 -0.129317 -0.218688 0.101948 0.109748 -0.013445 -0.145888 -0.059445 -0.117301 -0.280158 -0.220568 0.074257 0.071811 -0.307521 0.237087 -0.190926 0.100936 -0.001773 0.045056 -0.121180 -0.066603 -0.213806 -0.242996 0.451098 0.112736 0.098717 0.137683 0.003599 -0.060307 0.048991 0.168733 0.139740 -0.065515 0.098191 -0.141321 0.123590 -0.158319 -0.127672 -0.005696 0.032301 0.192045 -0.009160 0.050221 0.204593 0.418845 -0.328805 -0.313425 -0.170915 -0.178554 -0.079882 -0.268720
2604 -0.299113 0.400574 -0.101644 0.075404 -0.100270 -0.230572 -0.106944 -0.329378 0.222648 -0.146873 0.483564 -0.200172 0.159584 0.098559 0.284881 -0.039639 -0.053766 -0.091541 0.028883 0.127070 -0.179745 0.180989 -0.197826 0.350340 0.000343 -0.162638 -0.080597 -0.138474 -0.030432 -0.063389 -0.013768 0.302239 -0.052427 -0.439287 -0.062067 -0.087367 0.176641 -0.009699 -0.314007 -0.184990 0.139524 0.094837 0.002039 -0.322201 -0.189566 -0.003528 -0.152699 -0.241910 -0.075189 -0.295991 0.344242 0.263430 0.148687 -0.226806 0.115545 0.155509 -0.247185 -0.292346 0.044164 0.064995 -0.059273 0.081990 -0.040203 -0.034105 0.158614 0.070872 0.081657 -0.040716 -0.053393 0.059575 -0.339682 0.032913 0.300191 0.287104 -0.164029 -0.029629 0.072929 -0.081668 -0.113095 -0.217700 0.162327 0.095708 0.035077 -0.199585 -0.133467 -0.160253 -0.265526 -0.183154 0.071866 0.059340 -0.245476 0.234721 -0.230820 0.062955 -0.010749 0.034030 -0.158741 -0.056664 -0.197248 -0.219872 0.414125 0.075369 0.107157 0.190219 -0.009768 -0.067170 0.116177 0.184668 0.080976 -0.032001 0.064921 -0.113487 0.124302 -0.112291 -0.096186 -0.015399 0.018072 0.183859 -0.033146 -0.024724 0.302139 0.443467 -0.319490 -0.357062 -0.201644 -0.192544 -0.056517 -0.241298
1962 -0.337571 0.351402 -0.054340 0.072085 -0.026996 -0.295010 -0.188833 -0.340425 0.198734 -0.167035 0.493385 -0.287432 0.138418 0.151005 0.319714 -0.051628 -0.021288 -0.110942 0.046369 0.145785 -0.216335 0.245841 -0.181852 0.359431 0.083860 -0.213487 -0.087379 -0.135477 -0.025761 -0.042142 0.022668 0.297163 -0.044750 -0.403224 -0.115143 -0.060666 0.159679 0.013555 -0.258097 -0.227515 0.133657 0.110945 -0.012340 -0.300053 -0.167227 0.015593 -0.192679 -0.270740 -0.092141 -0.322103 0.331028 0.235401 0.175055 -0.234575 0.141092 0.124514 -0.238240 -0.273374 0.035228 0.080849 0.005110 0.048984 -0.092595 -0.070459 0.189474 0.072895 0.005771 -0.018521 -0.043600 0.104473 -0.283411 0.039551 0.263208 0.348868 -0.195768 -0.023929 0.104996 -0.124937 -0.130810 -0.207649 0.108809 0.102883 -0.013464 -0.159240 -0.078888 -0.101789 -0.280364 -0.217360 0.074360 0.083954 -0.307878 0.241692 -0.208165 0.135562 -0.006854 0.048362 -0.127515 -0.087386 -0.235121 -0.247682 0.441823 0.118614 0.094771 0.137220 -0.003014 -0.065118 0.038283 0.173648 0.137299 -0.088882 0.119111 -0.160425 0.130797 -0.156464 -0.115190 0.000408 0.026610 0.212765 -0.021451 0.046957 0.222218 0.423501 -0.345789 -0.315801 -0.163026 -0.196635 -0.096299 -0.265947
2607 -0.309000 0.363659 -0.078483 0.061236 -0.026666 -0.258474 -0.131425 -0.276485 0.199265 -0.139862 0.519326 -0.198859 0.120357 0.125695 0.329823 -0.013322 -0.027639 -0.122438 0.052290 0.149566 -0.159888 0.234867 -0.225272 0.333049 0.060323 -0.171127 -0.069409 -0.133558 0.006668 -0.049615 -0.044271 0.254195 -0.048556 -0.434730 -0.124308 -0.029824 0.154218 0.005097 -0.271456 -0.232402 0.131807 0.109997 0.021043 -0.299212 -0.193403 -0.010320 -0.196237 -0.290242 -0.030057 -0.312216 0.334541 0.239822 0.180172 -0.251734 0.140688 0.090829 -0.250928 -0.299008 -0.000457 0.078419 -0.035901 0.043652 -0.105057 -0.078687 0.214526 0.045638 0.011944 -0.029703 -0.008390 0.086820 -0.273754 0.060043 0.253373 0.353575 -0.181439 0.054283 0.098323 -0.110728 -0.094989 -0.186712 0.129874 0.054700 0.010296 -0.191938 -0.119834 -0.147605 -0.246479 -0.229885 0.076411 0.052357 -0.301074 0.228460 -0.194439 0.165388 0.027795 0.073549 -0.119076 -0.097976 -0.239862 -0.225658 0.427073 0.098430 0.098046 0.172127 0.013509 -0.033852 0.062111 0.171258 0.101102 -0.090739 0.107150 -0.163315 0.152616 -0.137140 -0.087128 -0.001062 0.063555 0.211430 -0.016605 0.034034 0.308469 0.415722 -0.313849 -0.330908 -0.179266 -0.149606 -0.108416 -0.258834
2593 -0.320815 0.383876 -0.053891 0.077375 -0.070632 -0.274868 -0.154694 -0.323198 0.216135 -0.157141 0.537898 -0.275570 0.077679 0.146150 0.312603 -0.024594 -0.041192 -0.151495 0.034616 0.137142 -0.194436 0.239819 -0.242023 0.365910 0.030819 -0.185419 -0.066799 -0.121277 -0.007319 -0.011042 0.007380 0.272724 -0.056777 -0.420075 -0.082614 -0.032659 0.175355 0.023503 -0.306862 -0.207375 0.132714 0.094114 0.009253 -0.318973 -0.168728 0.016805 -0.146493 -0.278026 -0.069194 -0.317021 0.341311 0.271531 0.211142 -0.249419 0.131158 0.128635 -0.259416 -0.284533 0.038286 0.098970 -0.029394 0.089783 -0.099889 -0.073630 0.198545 0.086321 0.028045 -0.046427 -0.074596 0.095986 -0.316397 0.066051 0.276203 0.324234 -0.197598 -0.033474 0.085207 -0.069758 -0.100428 -0.200860 0.115876 0.125320 0.014629 -0.177996 -0.120841 -0.150115 -0.268061 -0.194062 0.070576 0.093673 -0.263698 0.227381 -0.194684 0.114286 0.010472 0.044192 -0.146992 -0.089058 -0.251930 -0.253521 0.423286 0.123804 0.092120 0.176301 0.013824 -0.090842 0.070446 0.186925 0.096410 -0.072928 0.080360 -0.121787 0.102373 -0.187236 -0.104388 0.019917 0.081529 0.196065 -0.021046 0.019177 0.283891 0.409612 -0.336125 -0.319822 -0.192436 -0.248510 -0.086440 -0.291471
2313 0.191433 -0.066992 -0.023431 -0.201168 0.152974 -0.090224 -0.197559 0.171935 -0.093091 0.038633 0.417445 -0.265036 -0.061735 0.041608 0.420773 0.247493 0.183879 -0.420020 0.045561 -0.026731 -0.266700 0.230305 0.068672 -0.237833 0.225808 -0.304210 0.116854 0.023741 -0.067236 0.205634 -0.423451 -0.017210 0.097289 0.169393 -0.390913 0.442230 0.012556 -0.435287 -0.032252 0.293024 -0.016495 0.222645 -0.060431 -0.075995 -0.075954 -0.019359 -0.117936 -0.151690 0.261089 -0.203220 0.084659 -0.171143 0.072763 -0.045045 -0.074265 -0.088113 0.262077 -0.007746 -0.009856 -0.030423 0.191615 -0.099348 -0.284707 -0.319882 0.350919 0.156485 -0.206596 0.030940 0.037853 0.203852 0.323842 -0.049811 -0.124523 -0.035596 0.013056 0.322784 0.442055 -0.098171 0.117027 0.010838 -0.281808 0.006451 -0.246499 0.235937 -0.185026 0.308094 0.083768 -0.386955 0.029712 -0.077495 -0.214494 0.416470 0.343440 0.356720 -0.086456 -0.050860 0.001930 -0.271206 0.021659 0.004286 0.461776 -0.216885 -0.091128 -0.046168 0.194246 0.033329 -0.277491 0.428781 -0.005270 -0.074444 0.098262 -0.239938 0.155437 -0.051946 0.253766 -0.230243 0.025520 0.094862 0.172575 0.164601 -0.276163 0.254556 -0.194773 -0.105679 0.131543 0.309969 0.159823 -0.321558
2102 -0.024561 0.002148 0.019396 -0.015522 -0.143491 -0.052720 -0.087646 -0.117008 0.108178 0.033436 0.180654 -0.197429 0.116189 -0.128685 0.065812 -0.147192 -0.143163 0.066633 -0.103018 0.115672 -0.246012 0.017129 0.206717 0.036305 -0.040556 -0.380852 -0.149505 -0.048396 -0.001737 0.016426 -0.098559 0.211021 -0.129166 -0.099980 0.004094 -0.159872 -0.060814 -0.218075 -0.122043 0.333765 0.177599 0.084912 -0.131440 -0.285261 -0.057119 -0.056774 -0.080607 -0.013882 -0.126349 -0.085089 0.176343 0.098947 -0.055474 0.074728 -0.036128 0.158853 0.235520 -0.176948 -0.203335 0.012965 -0.173985 0.013964 -0.000512 -0.012231 -0.002236 0.025833 -0.008884 -0.193237 -0.229903 0.001657 -0.066519 -0.147571 0.290582 -0.173662 0.140360 -0.121499 0.016364 -0.021697 0.106726 -0.050091 -0.041602 0.225570 -0.068623 0.130750 -0.086430 0.104577 -0.155269 -0.199751 -0.145599 -0.113274 -0.019424 0.281057 0.109690 -0.176426 -0.117145 -0.324274 0.017970 -0.134145 0.265601 0.013092 0.329510 -0.051207 0.142103 0.050528 -0.070945 -0.161851 -0.146478 0.213661 0.005809 0.181191 0.057098 -0.060043 0.142682 0.005223 0.160873 -0.487347 -0.077520 0.094723 0.089296 -0.095541 -0.390361 0.318690 -0.036397 -0.266318 -0.187101 0.246380 0.335360 -0.146260
2340 -0.315397 0.360510 -0.051214 0.076675 -0.040137 -0.288953 -0.178914 -0.356314 0.201303 -0.158510 0.465891 -0.277733 0.152600 0.148799 0.298998 -0.033566 -0.040597 -0.075690 0.040560 0.124646 -0.221298 0.240239 -0.168971 0.365368 0.058932 -0.189597 -0.094373 -0.144038 -0.040368 -0.057844 0.049088 0.305199 -0.045568 -0.421991 -0.123613 -0.085534 0.176632 0.004173 -0.272528 -0.226266 0.144151 0.104541 -0.026650 -0.288251 -0.177747 0.005826 -0.209898 -0.261480 -0.091604 -0.325168 0.354632 0.247657 0.177986 -0.232844 0.138668 0.149856 -0.222836 -0.285025 0.032214 0.068823 -0.018867 0.074439 -0.063059 -0.061496 0.179159 0.059399 0.030011 -0.028752 -0.032323 0.086110 -0.288058 0.030580 0.264120 0.336954 -0.204871 -0.037282 0.095350 -0.123573 -0.120150 -0.229939 0.126893 0.097003 0.019883 -0.162351 -0.081700 -0.119159 -0.280156 -0.211954 0.068952 0.062428 -0.299706 0.240612 -0.197990 0.116024 0.006573 0.040188 -0.124535 -0.071748 -0.213614 -0.246448 0.452560 0.130993 0.111521 0.151345 -0.014848 -0.070770 0.062463 0.168215 0.131501 -0.066081 0.104253 -0.145549 0.123579 -0.149108 -0.121318 -0.002188 0.019671 0.178425 -0.017672 0.035038 0.232908 0.430244 -0.349415 -0.323323 -0.188408 -0.186177 -0.085060 -0.239185
2059 -0.325301 0.377382 -0.052076 0.088139 -0.059799 -0.293116 -0.168816 -0.339723 0.223353 -0.162453 0.517165 -0.271187 0.122391 0.159608 0.329906 -0.048947 -0.039100 -0.125759 0.018442 0.140107 -0.227353 0.253195 -0.218037 0.375974 0.052279 -0.215740 -0.085179 -0.132819 -0.010949 -0.031600 0.022982 0.278415 -0.059044 -0.435850 -0.105971 -0.074263 0.175683 0.016638 -0.297059 -0.230910 0.147301 0.114507 0.001853 -0.314361 -0.178433 0.019288 -0.180628 -0.292058 -0.083030 -0.324809 0.350230 0.250974 0.203209 -0.251184 0.139592 0.143774 -0.260251 -0.291366 0.048252 0.096530 -0.008025 0.079530 -0.095776 -0.063024 0.210662 0.086582 0.037628 -0.048849 -0.065916 0.107125 -0.334446 0.073976 0.294077 0.354271 -0.193964 -0.033327 0.108127 -0.097159 -0.119344 -0.226160 0.115033 0.123342 0.000588 -0.178177 -0.087095 -0.125886 -0.302065 -0.236960 0.085187 0.076704 -0.320471 0.235741 -0.209850 0.111634 -0.001522 0.045260 -0.148086 -0.079016 -0.259819 -0.255762 0.459233 0.112892 0.096486 0.180575 -0.008865 -0.072466 0.062620 0.182342 0.134988 -0.082073 0.098862 -0.149536 0.124155 -0.174891 -0.116449 0.014839 0.053872 0.210816 -0.026030 0.026522 0.255410 0.449445 -0.343989 -0.325483 -0.174802 -0.214985 -0.096195 -0.301366
2526 -0.257250 0.358300 -0.140836 0.054429 -0.110172 -0.221543 -0.031288 -0.224453 0.218423 -0.099310 0.445216 -0.078177 0.134280 0.055507 0.281124 -0.043525 -0.061015 -0.162836 0.017424 0.149642 -0.106782 0.131463 -0.272010 0.312777 -0.013859 -0.167303 -0.072886 -0.117174 0.067550 -0.031440 -0.152611 0.293819 -0.073910 -0.436382 0.020329 -0.051189 0.154043 -0.031785 -0.335960 -0.141190 0.166447 0.092840 0.076993 -0.341039 -0.205611 -0.041548 -0.126682 -0.232580 -0.002015 -0.276949 0.327968 0.272529 0.121257 -0.233735 0.117972 0.096705 -0.265089 -0.328847 0.015964 0.099917 -0.110412 0.083537 0.037031 0.015217 0.126105 0.050981 0.124641 -0.109726 0.004073 0.010764 -0.334353 0.071974 0.264062 0.215130 -0.069767 0.056654 0.048304 0.004995 -0.058635 -0.147246 0.145025 0.081661 0.058930 -0.226992 -0.145247 -0.207437 -0.198121 -0.177773 0.051921 0.009001 -0.204539 0.161335 -0.172841 0.018792 -0.004986 -0.010654 -0.166045 -0.008304 -0.186987 -0.152943 0.394652 -0.014959 0.095293 0.230370 -0.005922 0.026715 0.139343 0.207307 0.042784 0.021036 0.056251 -0.059415 0.109616 -0.055100 -0.017173 -0.033473 0.088127 0.168331 0.023788 -0.097243 0.387065 0.396064 -0.224699 -0.370649 -0.218587 -0.139825 -0.048081 -0.235223
2103 -0.322002 0.339094 -0.047253 0.100682 -0.063324 -0.317261 -0.172045 -0.322074 0.225047 -0.147657 0.481255 -0.235840 0.122331 0.135944 0.308162 -0.068324 -0.037718 -0.144549 0.007775 0.162790 -0.197150 0.236000 -0.230781 0.357782 0.043860 -0.211762 -0.086259 -0.118837 -0.001196 -0.041550 -0.006380 0.291889 -0.062463 -0.413591 -0.066264 -0.096285 0.161329 0.006568 -0.303742 -0.225236 0.153554 0.105276 0.021709 -0.322997 -0.191728 0.025647 -0.167223 -0.269276 -0.069267 -0.311137 0.345343 0.255111 0.199610 -0.249035 0.147440 0.131022 -0.262602 -0.302230 0.044977 0.104237 -0.021317 0.095403 -0.028332 -0.043496 0.159167 0.083226 0.050895 -0.078102 -0.047833 0.093213 -0.321526 0.090372 0.281918 0.308248 -0.147576 -0.031826 0.110203 -0.059676 -0.107694 -0.198205 0.109465 0.154486 0.004236 -0.159860 -0.060546 -0.144831 -0.289128 -0.242596 0.070973 0.063812 -0.297717 0.213728 -0.180661 0.067607 -0.001470 0.017447 -0.145557 -0.050910 -0.238298 -0.227375 0.448591 0.084188 0.092773 0.150247 0.006386 -0.036456 0.058350 0.182722 0.126599 -0.037604 0.084581 -0.117091 0.098571 -0.159084 -0.097950 -0.003222 0.051155 0.198801 -0.004032 -0.002660 0.266986 0.420212 -0.298526 -0.327605 -0.176636 -0.202687 -0.088407 -0.296354
2188 -0.313042 0.318476 -0.036947 0.066825 -0.029768 -0.274956 -0.171623 -0.342637 0.198012 -0.141500 0.441686 -0.260200 0.147499 0.118248 0.282535 -0.040728 -0.036749 -0.083236 0.041114 0.138812 -0.184139 0.219163 -0.172802 0.356269 0.041372 -0.184543 -0.101571 -0.146672 -0.018164 -0.054650 0.031177 0.287596 -0.065634 -0.408313 -0.104748 -0.078967 0.141197 0.006664 -0.245035 -0.214447 0.153111 0.105842 -0.000556 -0.298587 -0.160927 -0.007717 -0.214698 -0.254995 -0.073373 -0.306577 0.329764 0.227569 0.174448 -0.226153 0.149281 0.140379 -0.196764 -0.277903 -0.014086 0.053730 -0.045154 0.073378 -0.050833 -0.036400 0.169806 0.038662 0.010711 -0.044481 -0.013083 0.080540 -0.266252 0.041468 0.264543 0.336688 -0.167694 -0.020739 0.068896 -0.123222 -0.110358 -0.221692 0.131754 0.101556 0.033177 -0.155547 -0.103121 -0.135768 -0.273241 -0.211413 0.071513 0.060086 -0.292281 0.228064 -0.188790 0.116719 0.019020 0.020813 -0.122718 -0.082820 -0.196768 -0.233461 0.448465 0.135243 0.116502 0.152845 -0.010154 -0.072836 0.055207 0.140675 0.122347 -0.058879 0.098243 -0.137338 0.129584 -0.142795 -0.111578 -0.021406 0.042096 0.186170 -0.002004 0.039283 0.227342 0.410431 -0.320122 -0.328983 -0.196723 -0.154055 -0.096162 -0.247163
2309 -0.281447 0.301339 -0.043220 0.094896 -0.035551 -0.291142 -0.179527 -0.292527 0.203351 -0.125250 0.431600 -0.218276 0.136872 0.133223 0.292441 -0.061656 -0.020572 -0.113645 0.013449 0.150653 -0.173538 0.216448 -0.200012 0.316113 0.055113 -0.212039 -0.089427 -0.098812 -0.003877 -0.044820 0.007964 0.271523 -0.048643 -0.392383 -0.081392 -0.088178 0.149520 -0.006907 -0.277470 -0.209387 0.155479 0.118134 0.006998 -0.295467 -0.180624 0.022417 -0.154652 -0.249026 -0.073177 -0.299061 0.330411 0.232447 0.166048 -0.219567 0.141729 0.120842 -0.230892 -0.286376 0.039302 0.092712 -0.020424 0.077587 -0.024622 -0.037747 0.140999 0.057429 0.040064 -0.068013 -0.033978 0.092433 -0.290864 0.062989 0.262241 0.281031 -0.147419 -0.030071 0.109582 -0.059810 -0.098997 -0.187732 0.096728 0.140196 0.002889 -0.142683 -0.055049 -0.129588 -0.262143 -0.220396 0.074779 0.052450 -0.287705 0.206877 -0.163146 0.078131 0.000800 0.005117 -0.137292 -0.058622 -0.209312 -0.207462 0.446443 0.074565 0.088827 0.127101 0.030441 -0.019802 0.046158 0.184168 0.119284 -0.044885 0.091256 -0.134833 0.111089 -0.142617 -0.103194 -0.026577 0.030657 0.192981 0.000877 0.024371 0.222367 0.411260 -0.288244 -0.306924 -0.158503 -0.159363 -0.061102 -0.280568
2290 -0.319151 0.362238 -0.069701 0.077331 -0.062529 -0.255098 -0.141084 -0.334410 0.225468 -0.135787 0.479534 -0.201904 0.148510 0.100844 0.289861 -0.065360 -0.054916 -0.084886 0.025707 0.143691 -0.181529 0.206205 -0.173737 0.344383 0.032897 -0.176618 -0.093468 -0.135082 -0.018700 -0.065062 -0.004467 0.296371 -0.051995 -0.435881 -0.077411 -0.088815 0.147908 0.011639 -0.278562 -0.222604 0.131456 0.100451 -0.002083 -0.305605 -0.189484 -0.004578 -0.171310 -0.261324 -0.078277 -0.291679 0.339352 0.235036 0.166275 -0.217439 0.141130 0.132966 -0.230869 -0.301507 0.021089 0.059003 -0.036329 0.076589 -0.047611 -0.042111 0.174646 0.042184 0.041206 -0.050623 -0.046535 0.084057 -0.301749 0.044528 0.278312 0.323047 -0.176372 -0.013770 0.071175 -0.097832 -0.112724 -0.202130 0.143385 0.101903 0.014980 -0.182072 -0.105202 -0.141264 -0.271610 -0.222444 0.067451 0.051881 -0.288195 0.240478 -0.215492 0.098897 0.000249 0.037067 -0.125801 -0.070343 -0.223285 -0.235203 0.428602 0.102657 0.112929 0.179898 -0.003129 -0.061013 0.078071 0.181805 0.110147 -0.049419 0.095162 -0.143918 0.146181 -0.131229 -0.100230 -0.025011 0.042347 0.185502 -0.016658 0.007553 0.282800 0.430715 -0.303145 -0.345186 -0.195897 -0.167309 -0.082155 -0.247835
2172 -0.312823 0.341765 -0.043946 0.069312 -0.042997 -0.276513 -0.155966 -0.341040 0.203447 -0.154370 0.448448 -0.262336 0.152377 0.113219 0.291837 -0.041711 -0.039735 -0.076363 0.036473 0.126941 -0.205254 0.214158 -0.182998 0.346972 0.025480 -0.173126 -0.104996 -0.150838 -0.016926 -0.049675 0.028376 0.278533 -0.073499 -0.419381 -0.089109 -0.093153 0.157419 0.004515 -0.278717 -0.217578 0.165644 0.112511 -0.011164 -0.302664 -0.162655 -0.003370 -0.213017 -0.263699 -0.066986 -0.308079 0.329640 0.254351 0.178647 -0.234113 0.149043 0.137532 -0.219469 -0.295302 0.000879 0.072491 -0.043225 0.070892 -0.059254 -0.047654 0.167723 0.028799 0.033742 -0.051238 -0.011735 0.075637 -0.292730 0.057246 0.258743 0.319677 -0.159466 -0.019896 0.078152 -0.107785 -0.115431 -0.212333 0.148994 0.102434 0.032590 -0.167365 -0.103983 -0.140403 -0.276257 -0.198525 0.063048 0.056636 -0.292727 0.209528 -0.209085 0.092174 0.010406 0.015076 -0.118624 -0.074177 -0.196250 -0.218065 0.438794 0.115045 0.118538 0.158022 -0.026629 -0.058556 0.076255 0.153723 0.116769 -0.058494 0.090825 -0.125251 0.118925 -0.140796 -0.107901 -0.020454 0.030811 0.180517 -0.013826 0.017804 0.246955 0.403108 -0.313982 -0.316807 -0.193270 -0.156363 -0.079842 -0.234675
2428 -0.332998 0.339348 -0.045933 0.081454 -0.029683 -0.317302 -0.161686 -0.334076 0.197262 -0.143451 0.454192 -0.238319 0.154659 0.118670 0.294731 -0.045099 -0.065674 -0.137271 0.014715 0.152906 -0.207837 0.252895 -0.223063 0.344538 0.040314 -0.197929 -0.091706 -0.124162 -0.004343 -0.036802 0.007108 0.303111 -0.051528 -0.416985 -0.086258 -0.101689 0.150904 -0.007104 -0.290575 -0.211288 0.150061 0.107140 0.000684 -0.276787 -0.188694 0.018998 -0.186711 -0.260024 -0.075259 -0.318486 0.345549 0.248340 0.189935 -0.242682 0.158854 0.132935 -0.252470 -0.290875 0.025174 0.083850 -0.012514 0.075237 0.004592 -0.040908 0.172122 0.065731 0.043982 -0.051431 -0.013828 0.098357 -0.287542 0.072893 0.242687 0.306938 -0.145829 -0.031495 0.102572 -0.064319 -0.117405 -0.208648 0.110260 0.142131 0.017997 -0.180625 -0.073797 -0.142544 -0.284663 -0.220778 0.087817 0.058384 -0.301188 0.217561 -0.162874 0.064837 0.014318 0.024161 -0.154373 -0.056608 -0.216872 -0.230969 0.470111 0.068138 0.103588 0.165173 -0.003628 -0.027021 0.078050 0.163942 0.121198 -0.038697 0.070874 -0.113320 0.096620 -0.151792 -0.115646 0.003174 0.059780 0.183445 0.017053 0.015263 0.273548 0.423290 -0.313653 -0.345734 -0.211392 -0.206266 -0.095100 -0.254258
